word,0,1,2,3,4,5,6,7,8,9,10,11,12,13,14,15,16,17,18,19,20,21,22,23,24,25,26,27,28,29,30,31,32,33,34,35,36,37,38,39,40,41,42,43,44,45,46,47,48,49,50,51,52,53,54,55,56,57,58,59,60,61,62,63,64,65,66,67,68,69,70,71,72,73,74,75,76,77,78,79,80,81,82,83,84,85,86,87,88,89,90,91,92,93,94,95,96,97,98,99,100,101,102,103,104,105,106,107,108,109,110,111,112,113,114,115,116,117,118,119,120,121,122,123,124,125,126,127,128,129,130,131,132,133,134,135,136,137,138,139,140,141,142,143,144,145,146,147,148,149,150,151,152,153,154,155,156,157,158,159,160,161,162,163,164,165,166,167,168,169,170,171,172,173,174,175,176,177,178,179,180,181,182,183,184,185,186,187,188,189,190,191,192,193,194,195,196,197,198,199,200,201,202,203,204,205,206,207,208,209,210,211,212,213,214,215,216,217,218,219,220,221,222,223,224,225,226,227,228,229,230,231,232,233,234,235,236,237,238,239,240,241,242,243,244,245,246,247,248,249,250,251,252,253,254,255,256,257,258,259,260,261,262,263,264,265,266,267,268,269,270,271,272,273,274,275,276,277,278,279,280,281,282,283,284,285,286,287,288,289,290,291,292,293,294,295,296,297,298,299,300,301,302,303,304,305,306,307,308,309,310,311,312,313,314,315,316,317,318,319,320,321,322,323,324,325,326,327,328,329,330,331,332,333,334,335,336,337,338,339,340,341,342,343,344,345,346,347,348,349,350,351,352,353,354,355,356,357,358,359,360,361,362,363,364,365,366,367,368,369,370,371,372,373,374,375,376,377,378,379,380,381,382,383,384,385,386,387,388,389,390,391,392,393,394,395,396,397,398,399
互助,-0.16310501098632812,0.12665484845638275,-0.045142874121665955,-0.3110269606113434,-0.18029816448688507,0.2926817536354065,0.3821389973163605,-0.04445243999361992,-0.14659692347049713,-0.09162147343158722,-0.15988494455814362,0.12556307017803192,0.2952978312969208,-0.1451910138130188,-0.11586426198482513,0.3058755397796631,0.14942079782485962,0.17087116837501526,-0.020754624158143997,-0.10117537528276443,0.3735146224498749,-0.06349156051874161,0.37239518761634827,0.5143381953239441,-0.28142720460891724,0.07736942917108536,0.33439671993255615,-0.2525654733181,-0.3834150433540344,0.4196130037307739,-0.08965609222650528,-0.05591704323887825,0.06458311527967453,-0.03437313437461853,-0.08189154416322708,0.10954242944717407,0.20361436903476715,-0.17697690427303314,-0.0023133568465709686,0.11330930888652802,-0.01074113417416811,-0.3018280267715454,-0.12859651446342468,-0.16955234110355377,0.05747149884700775,-0.040124889463186264,-0.25318172574043274,-0.1809256672859192,0.4439677596092224,0.1617118865251541,-0.13842988014221191,-0.17717969417572021,0.01980922371149063,0.24676483869552612,-0.3286115229129791,0.12241628766059875,0.09122167527675629,0.04242364317178726,0.2187899500131607,0.1140306293964386,0.0028376111295074224,0.03850498050451279,0.2577967047691345,0.08242079615592957,-0.09495610743761063,0.059983693063259125,-0.027075715363025665,0.0643281489610672,0.15287621319293976,-0.3860847055912018,-0.05933395400643349,-0.2031547576189041,-0.011454003863036633,0.09784798324108124,-0.00695708766579628,-0.0934314876794815,0.16119252145290375,0.2625471353530884,0.34343183040618896,-0.3295600712299347,-0.09111301600933075,0.2834649682044983,0.23666158318519592,0.1487623155117035,-0.08644918352365494,0.004089321941137314,-0.22832396626472473,0.16425904631614685,0.13871006667613983,-0.009162110276520252,0.03189747408032417,-0.02996988408267498,0.12647320330142975,0.21455475687980652,-0.48116153478622437,-0.09243255108594894,0.022154830396175385,0.4780532419681549,0.06565862149000168,-0.17637839913368225,-0.07566404342651367,0.2276013046503067,0.06875945627689362,0.18020938336849213,-0.07324285805225372,-0.2899920344352722,-0.26041558384895325,-0.45446380972862244,-0.08137758076190948,0.0005569810164161026,0.2747443914413452,0.10696236789226532,-0.2832784354686737,-0.26867741346359253,0.07707536220550537,-0.1617041677236557,0.2415761500597,-0.08021363615989685,0.4071919620037079,-0.12577307224273682,-0.07717202603816986,0.11854075640439987,0.00419706292450428,0.1891704648733139,-0.621849775314331,0.09881331771612167,-0.1196340024471283,-0.1648113876581192,-0.11956389248371124,-0.1259879320859909,0.3335937559604645,0.2701627016067505,-0.017781224101781845,0.47068971395492554,-0.07225233316421509,-0.07459744065999985,0.15044480562210083,-0.41359007358551025,-0.3646017909049988,-0.11928022652864456,-0.03200365975499153,-0.15539386868476868,-0.360817551612854,-0.2925909161567688,-0.20812082290649414,-0.06457927823066711,-0.2539401054382324,0.09645724296569824,0.6724103093147278,-0.018937766551971436,-0.013862449675798416,0.21971577405929565,0.5566359162330627,0.12457312643527985,0.008065340109169483,-0.17906545102596283,-0.17414341866970062,-0.03806053102016449,0.015107006765902042,-0.12080226838588715,-0.2972515821456909,0.46110814809799194,0.23253123462200165,0.0909191444516182,0.3382079005241394,-0.19063840806484222,0.21044974029064178,-0.24402084946632385,-0.028399819508194923,0.00927003100514412,-0.03057027980685234,-0.02209232561290264,-0.03293851017951965,-0.05295633152127266,-0.313049852848053,-0.05719732493162155,0.07334941625595093,0.31296074390411377,0.04885866492986679,0.003325317520648241,-0.09652720391750336,0.33348149061203003,0.160840705037117,0.2474748194217682,-0.08950501680374146,0.34849077463150024,0.28988027572631836,-0.12289327383041382,0.10559112578630447,0.3232349157333374,-0.12473797798156738,-0.11571702361106873,-0.08039367944002151,-0.2020578682422638,0.21985368430614471,-0.0912492647767067,-0.40969061851501465,0.11545240134000778,0.28510284423828125,0.1679460108280182,0.09446799010038376,0.3355466425418854,-0.028662649914622307,0.07113009691238403,-0.13172221183776855,0.0210530124604702,0.21848273277282715,0.10391158610582352,-0.23094476759433746,0.015497248619794846,0.11470606178045273,-0.007410695776343346,-0.032850515097379684,-0.10548926144838333,-0.2811290919780731,0.08623434603214264,-0.4593401849269867,-0.035971499979496,-0.26834455132484436,-0.43038976192474365,-0.24250264465808868,-0.01672796718776226,-0.6241138577461243,-0.27036893367767334,0.1251334697008133,0.0759735256433487,-0.04176147282123566,0.1307883858680725,0.18728788197040558,0.09564933180809021,0.10348152369260788,0.059665925800800323,-0.082876056432724,-0.1426357626914978,-0.5818406343460083,0.23884187638759613,0.031486060470342636,0.025310644879937172,0.2526041865348816,-0.2591637074947357,-0.06650178879499435,-0.21963736414909363,-0.421359658241272,-0.3092512786388397,-0.06626895070075989,0.057293850928545,0.06991002708673477,0.235550194978714,-0.18427236378192902,-0.0069522494450211525,0.28511300683021545,0.11105772852897644,0.15980011224746704,-0.04948798939585686,-0.4524998068809509,0.0014243887271732092,-0.21825873851776123,0.167780339717865,0.1207403913140297,0.36033540964126587,0.09594446420669556,0.3611206114292145,0.057169463485479355,-0.020475735887885094,0.15604233741760254,0.13065683841705322,-0.0354771763086319,0.2081935852766037,-0.5328759551048279,0.0234252717345953,0.29370349645614624,0.1551903784275055,-0.019339069724082947,0.23318615555763245,0.10545817017555237,0.2830897271633148,0.5284498929977417,0.1252591460943222,-0.008689749985933304,-0.32060298323631287,0.195466548204422,-0.07327692955732346,-0.1398880034685135,0.05644814670085907,0.007033375557512045,0.42575156688690186,0.08888284862041473,-0.06661629676818848,0.04162590578198433,0.16517356038093567,0.11291700601577759,-0.14271456003189087,-0.3859422206878662,-0.16023463010787964,0.020618470385670662,-0.07161734998226166,0.3338204026222229,-0.15774939954280853,0.04359209164977074,0.015177074819803238,-0.2693944275379181,-0.23827525973320007,-0.08281031250953674,0.1840304136276245,-0.2584609091281891,0.03385705128312111,0.03484565392136574,0.07158259302377701,0.11739855259656906,0.13010801374912262,0.22788403928279877,0.31380993127822876,-0.08512791246175766,0.0035053673200309277,0.11121895909309387,-0.0003840084536932409,0.32267898321151733,0.1998603641986847,0.013718558475375175,0.16998335719108582,0.16400571167469025,-0.22392390668392181,0.08886111527681351,0.010199309326708317,-0.05527102202177048,-0.5284968018531799,-0.04337414726614952,0.49224740266799927,-0.13564416766166687,0.11186932772397995,0.3880339562892914,-0.015455476008355618,-0.08015904575586319,0.05213780328631401,-0.0630214661359787,0.12567004561424255,-0.3997252881526947,-0.03836239129304886,0.3599969446659088,0.16969330608844757,0.42335763573646545,0.5080281496047974,-0.2411324381828308,0.2569870054721832,-0.10383253544569016,-0.2905835807323456,0.1642351746559143,-0.03269811347126961,-0.10899007320404053,-0.2133028358221054,-0.13585366308689117,-0.226952463388443,0.2969553470611572,0.3872237503528595,0.21720214188098907,-0.13233064115047455,-0.3410433828830719,0.3741718828678131,0.3089042603969574,-0.45727410912513733,0.17923888564109802,0.17938117682933807,0.04463191330432892,0.11679601669311523,0.006231237668544054,-0.2334386110305786,-0.09285828471183777,-0.25192320346832275,-0.139943927526474,-0.07001562416553497,-0.3345116078853607,-0.2736418545246124,-0.20544300973415375,0.0393683984875679,-0.28467801213264465,-0.24574707448482513,0.38971778750419617,0.18290233612060547,0.22047258913516998,-0.08080223202705383,0.07020991295576096,-0.4351401627063751,0.46714717149734497,-0.06457465142011642,0.1209370419383049,-0.24569572508335114,0.2577131688594818,0.24960942566394806,0.3850859999656677,0.0421634279191494,0.3859490752220154,0.25082048773765564,-0.4843211770057678,-0.052730362862348557,-0.0024363992270082235,0.13893833756446838,0.5361983776092529,-0.21150799095630646,0.3721107840538025,0.1826128512620926
公司,-0.19184008240699768,-0.0790051817893982,-0.033395472913980484,-0.17374226450920105,-0.04166562855243683,0.1736656278371811,-0.25130850076675415,-0.15031205117702484,0.3023342788219452,0.1168685257434845,0.034364745020866394,-0.1163782849907875,0.12591205537319183,0.10157039016485214,-0.1673964560031891,0.047498397529125214,0.13648590445518494,0.04038909077644348,-0.0018454882083460689,-0.12034968286752701,0.3099173307418823,0.16111882030963898,-0.07985016703605652,-0.0028503169305622578,-0.18759940564632416,-0.11614731699228287,0.03817395493388176,-0.1690688282251358,0.019117625430226326,-0.10346294939517975,-0.06514616310596466,-0.07060325890779495,-0.24453306198120117,0.0830535888671875,0.08620072156190872,0.015952201560139656,0.15291574597358704,-0.04106513038277626,0.060189101845026016,0.21234551072120667,-0.20117709040641785,-0.0852319672703743,0.24490395188331604,-0.19791749119758606,-0.2509858310222626,-0.09255251288414001,-0.1593790501356125,0.2343187928199768,0.14521387219429016,-0.09623195230960846,-0.14725244045257568,0.31742769479751587,0.22201836109161377,0.10914666950702667,0.0765831395983696,0.17075826227664948,0.2183811366558075,0.02750083990395069,0.25910207629203796,-0.4218364655971527,-0.008652796968817711,0.027057752013206482,0.276659220457077,0.35571083426475525,0.10620705783367157,-0.07019755244255066,0.1003483459353447,-0.17741967737674713,-0.39388346672058105,-0.4693942368030548,-0.08335191011428833,-0.03182932361960411,-0.09868741035461426,0.2571552097797394,-0.1700558215379715,-0.20678603649139404,0.08570054173469543,0.1378203183412552,0.18847660720348358,0.38367801904678345,-0.06043048948049545,0.15613830089569092,0.2023666352033615,0.2166321724653244,0.03437686711549759,0.0495353639125824,-0.3062370717525482,0.09473025053739548,-0.2135254442691803,0.17024023830890656,-0.0981675311923027,0.08825331181287766,0.13935843110084534,0.1767633855342865,-0.11229769140481949,-0.16807082295417786,0.021267181262373924,0.12598548829555511,-0.11920244246721268,0.061380527913570404,-0.17094174027442932,-0.0807444229722023,0.24544885754585266,0.017483476549386978,0.13453954458236694,-0.12910789251327515,0.16795749962329865,-0.0007761995657347143,-0.16554342210292816,0.005473038647323847,-0.1790877729654312,-0.18503043055534363,0.03413184732198715,0.19402919709682465,0.02989661693572998,-0.07371170818805695,0.38770273327827454,0.03289106488227844,0.09552626311779022,0.15097224712371826,0.06142984703183174,-0.15605439245700836,-0.12550987303256989,-0.34289103746414185,-0.057315077632665634,0.12892623245716095,0.23928701877593994,-0.22176197171211243,-0.021016553044319153,-0.2731776535511017,-0.009974253363907337,0.20954997837543488,-0.02317715622484684,-0.01635492406785488,0.039801470935344696,0.3348396420478821,-0.18845219910144806,0.07900067418813705,-0.011753160506486893,0.10304903984069824,-0.07712456583976746,-0.05259043350815773,0.08066054433584213,0.1957172304391861,-0.10141187906265259,-0.011060638353228569,0.06701438128948212,0.059652138501405716,-0.10216154158115387,0.0419585220515728,-0.15154507756233215,-0.11290843784809113,0.1135181188583374,0.07765760272741318,0.10300588607788086,0.01398025918751955,-0.04222851246595383,-0.09634287655353546,0.2091618925333023,-0.1668945699930191,-0.42144009470939636,0.11559703201055527,0.02654789388179779,0.12147904187440872,-0.10717987269163132,0.09295781701803207,-0.039317816495895386,0.2577615976333618,-0.13581785559654236,-0.2916562557220459,-0.027708953246474266,-0.3200055658817291,-0.2270933985710144,-0.1290547251701355,0.20961789786815643,-0.09959474205970764,0.09225959330797195,0.10415535420179367,-0.047886062413454056,-0.10575170069932938,-0.082373708486557,-0.0831044390797615,-0.14304813742637634,-0.41546133160591125,-0.11296860128641129,0.030022993683815002,0.15865814685821533,-0.4073849618434906,0.19733116030693054,-0.3100752532482147,-0.1394813358783722,0.2471734583377838,0.2085692584514618,-0.2453325092792511,-0.10445170104503632,-0.09026440232992172,-0.15108492970466614,-0.016645723953843117,-0.016225440427660942,-0.21645478904247284,0.27469465136528015,0.11352408677339554,-0.2950788736343384,-0.1942587047815323,0.020581623539328575,-0.12956489622592926,0.013556882739067078,0.20366708934307098,0.01532675325870514,-0.013187475502490997,0.0505925677716732,-0.0857340395450592,-0.013732881285250187,0.1913352757692337,-0.14523552358150482,0.08769537508487701,-0.14046576619148254,-0.19969257712364197,-0.03619835153222084,-0.060840487480163574,-0.22068160772323608,-0.12277960032224655,-0.13763149082660675,-0.07829717546701431,0.1614523082971573,0.24300992488861084,0.12641331553459167,0.2327926605939865,0.03394855931401253,-0.10366685688495636,-0.07838103920221329,0.16398431360721588,0.255971759557724,-0.22644942998886108,-0.11290561407804489,-0.18166165053844452,0.07535921782255173,0.10236581414937973,0.037983350455760956,-0.23580338060855865,-0.015769200399518013,-0.052977852523326874,-0.13385580480098724,-0.1919453740119934,-0.07880464196205139,-0.15698032081127167,0.165500670671463,0.3306949734687805,-0.266605943441391,0.2788812220096588,0.1739511936903,-0.24192185699939728,-0.1004536896944046,-0.07733076065778732,0.045011766254901886,-0.01001692097634077,-0.3453184962272644,0.14263246953487396,0.05631520599126816,0.05672617256641388,-0.05561666935682297,0.1299995481967926,0.009006895124912262,0.054718878120183945,0.30344927310943604,-0.10114184021949768,0.2842930853366852,0.04613213613629341,-0.003272783011198044,-0.0050781043246388435,0.12377987056970596,0.39585572481155396,-0.019639035686850548,0.01128868293017149,-0.12521524727344513,0.020078683272004128,0.2688866853713989,0.03437638282775879,0.012247927486896515,-0.038977887481451035,0.023545682430267334,-0.032527800649404526,-0.24825359880924225,0.05355655029416084,0.0871821790933609,0.020478297024965286,-0.04296937212347984,-0.09884150326251984,-0.028022417798638344,-0.29121163487434387,0.06592625379562378,-0.3030056655406952,-0.3457556366920471,-0.0023634182289242744,-0.14173562824726105,-0.006151227746158838,0.11495717614889145,0.13104557991027832,-0.18032006919384003,0.18822725117206573,0.011849185451865196,-0.3026847541332245,-0.0637207180261612,-0.13599738478660583,0.1069236695766449,0.10794617235660553,-0.07068528234958649,0.15390132367610931,0.0746256485581398,0.008857855573296547,-0.011446925811469555,-0.21980039775371552,0.02844688482582569,-0.06265129894018173,-0.30279678106307983,0.2512836754322052,0.03350052237510681,-0.21852877736091614,-0.32294219732284546,0.00948263704776764,-0.3077467978000641,0.04945513606071472,0.27246609330177307,0.084596648812294,-0.07358530163764954,-0.023662293329834938,0.1424412578344345,0.19653642177581787,0.03791223093867302,-0.12379644066095352,0.16638347506523132,0.15866778790950775,0.10440125316381454,-0.11925610899925232,0.05238625779747963,0.34761661291122437,0.013179779052734375,-0.17430034279823303,-0.0892798900604248,0.19535714387893677,0.12100321054458618,0.011630676686763763,-0.14916831254959106,0.06145390495657921,0.0824672281742096,-0.09426675736904144,-0.10583950579166412,-0.10168605297803879,0.012825870886445045,0.005336795002222061,0.04208865761756897,0.22686699032783508,0.13779042661190033,-0.07218816131353378,-0.022666320204734802,0.06571430712938309,-0.15469494462013245,-0.2628626525402069,0.07935544103384018,0.033035457134246826,-0.002937456127256155,-0.1734810322523117,0.05366859212517738,0.04064622521400452,0.09236838668584824,-0.09527214616537094,-0.004170511849224567,-0.19713670015335083,0.06828209012746811,0.1963271200656891,0.13812191784381866,0.07479365915060043,-0.0484934002161026,0.20833787322044373,-0.16606256365776062,-0.048844728618860245,0.13763977587223053,-0.06642436981201172,0.06932814419269562,-0.27970337867736816,-0.17329755425453186,0.14524191617965698,-0.007298357784748077,0.07371001690626144,-0.04656805843114853,0.15325607359409332,0.3779890537261963,-0.33288130164146423,0.13247352838516235,0.1262071430683136,0.01245512068271637,0.08327386528253555,-0.29405367374420166,0.04775041341781616,0.1364552229642868,-0.13963977992534637,-0.014041846618056297,0.09912433475255966,-0.09052155166864395,-0.2109908014535904
现实,0.24784210324287415,-0.41936907172203064,0.0987333208322525,-0.3668130934238434,-0.3185930848121643,0.24274636805057526,0.13452422618865967,-0.05011729896068573,-0.048108696937561035,0.004780552349984646,-0.11014409363269806,-0.39545318484306335,-0.30970126390457153,0.33285143971443176,0.0029078724328428507,0.05042038485407829,-0.04270917549729347,0.0393817201256752,0.04178701341152191,0.147393137216568,0.13753516972064972,0.047527387738227844,0.08713867515325546,0.10600178688764572,0.008239244110882282,-0.01958444155752659,0.31475889682769775,-0.1358530968427658,-0.10640141367912292,0.15022513270378113,0.007459420245140791,-0.10740333795547485,-0.14317019283771515,-0.173768550157547,-0.052162591367959976,-0.13109827041625977,0.09639471024274826,0.24428115785121918,-0.32550227642059326,0.418586790561676,-0.04214984178543091,-0.21045617759227753,0.10937251150608063,-0.3253856301307678,0.20347027480602264,-0.018613234162330627,-0.17264370620250702,-0.05747354030609131,-0.023880507797002792,0.34835565090179443,-0.04087290167808533,0.19624264538288116,0.1910077929496765,-0.2502843141555786,-0.26541417837142944,0.20729267597198486,-0.06677472591400146,-0.11587393283843994,0.3413796126842499,-0.10531818121671677,-0.11278307437896729,0.09275484085083008,0.06325623393058777,0.08121322840452194,0.005082353949546814,-0.19555383920669556,-0.06539448350667953,0.06765799969434738,-0.3141081929206848,0.22639943659305573,-0.08030565083026886,-0.08399485051631927,0.2464243322610855,0.11171171069145203,0.06728556752204895,-0.1660974770784378,-0.009933683089911938,-0.21339040994644165,-0.16961321234703064,-0.08174041658639908,0.19064031541347504,0.06674357503652573,-0.1422758847475052,-0.04206821322441101,0.07417819648981094,-0.0032123988494277,-0.1390748769044876,0.010943359695374966,0.12166688591241837,0.17437316477298737,0.28254464268684387,0.07100357860326767,-0.11280222237110138,-0.031765807420015335,0.016777750104665756,0.26935410499572754,-0.24511419236660004,0.2762797772884369,-0.35422536730766296,0.336864173412323,-0.05166049674153328,-0.2812023460865021,0.5769087076187134,0.05378779023885727,0.17489837110042572,0.18446840345859528,0.04273917153477669,-0.35039156675338745,-0.097603939473629,0.12103050947189331,-0.014848118647933006,-0.23310832679271698,-0.5431542992591858,0.08236575126647949,-0.35491475462913513,0.11401411145925522,-0.10483546555042267,0.19773492217063904,0.006753962021321058,0.22804202139377594,0.14981667697429657,-0.2388380616903305,0.21500588953495026,-0.030405061319470406,0.21235865354537964,0.20558632910251617,0.1951078325510025,-0.005950255319476128,0.1634235829114914,-0.30636999011039734,0.11319699138402939,0.2801448106765747,0.0007930863066576421,-0.252035915851593,-0.13882586359977722,0.5407074689865112,0.033034007996320724,-0.026282552629709244,0.3310474753379822,0.06751130521297455,0.14757584035396576,0.269932359457016,-0.07829301059246063,0.1634855419397354,-0.11765467375516891,-0.1945146769285202,-0.12137947976589203,0.04481589421629906,0.13645334541797638,-0.13254714012145996,-0.1392621397972107,0.0015053629176691175,0.2463560849428177,-0.3880457878112793,-0.16672182083129883,0.07453130930662155,-0.24249984323978424,0.2496030628681183,0.03299872577190399,-0.6002421379089355,-0.06749670952558517,-0.02945963852107525,0.3415565490722656,-0.06187092885375023,0.24504227936267853,0.12128400802612305,-0.12332376092672348,-0.10410795360803604,-0.37395092844963074,-0.22407715022563934,0.1909809112548828,-0.1764146387577057,-0.19539813697338104,-0.42941683530807495,-0.05568439140915871,-0.04619418457150459,0.3718726336956024,0.11634442955255508,0.21597951650619507,-0.08492882549762726,0.18710725009441376,0.09179524332284927,0.13205237686634064,0.15008948743343353,-0.30841264128685,-0.27667465806007385,0.20926833152770996,-0.008006155490875244,0.14792443811893463,0.06020641326904297,0.04279119148850441,0.18850141763687134,0.06660988181829453,0.0020462293177843094,0.08186406642198563,-0.021686067804694176,-0.31782427430152893,-0.09479134529829025,0.06174613907933235,0.3101789951324463,0.028920594602823257,-0.11467993259429932,-0.10510069876909256,-0.10897455364465714,-0.0807519406080246,-0.422123521566391,0.29786011576652527,0.19813308119773865,-0.06578009575605392,0.043971676379442215,0.05088980495929718,0.08651027828454971,0.4172530472278595,-0.5104212164878845,-0.4219556152820587,0.18753962218761444,0.2752726376056671,-0.27258291840553284,-0.27356889843940735,0.03797740861773491,0.08252499997615814,0.27506402134895325,-0.3490876257419586,-0.42354056239128113,0.15741509199142456,0.23329518735408783,0.1854097992181778,-0.4110966622829437,0.07970065623521805,0.13812726736068726,0.021738946437835693,-0.23914584517478943,-0.21652866899967194,0.33746665716171265,0.07504445314407349,0.06820017844438553,0.1511295586824417,-0.08997324109077454,0.1286708116531372,-0.32747000455856323,-0.169200137257576,-0.06676990538835526,-0.5027849078178406,0.11497676372528076,-0.17674100399017334,-0.10810059309005737,0.35939618945121765,-0.01970161683857441,-0.049609310925006866,0.2086574286222458,0.006779628340154886,0.3076983094215393,-0.03124665841460228,-0.09291660040616989,-0.2583889961242676,-0.27366673946380615,0.1584368348121643,-0.0012126504443585873,0.26195383071899414,0.16126470267772675,0.3104057013988495,-0.027983130887150764,0.1336517184972763,-0.09864369034767151,0.23034675419330597,-0.03561853989958763,0.2144683599472046,-0.06800487637519836,-0.06350830942392349,0.1379246711730957,0.2058534324169159,0.295564740896225,-0.2723502516746521,-0.30113646388053894,0.14426474273204803,0.16917209327220917,0.10239384323358536,0.48433855175971985,-0.10676860064268112,0.13680195808410645,-0.21875977516174316,-0.01882043108344078,0.014249160885810852,-0.22189736366271973,-0.24113205075263977,0.22477467358112335,-0.2290606051683426,-0.053436003625392914,-0.09288956224918365,-0.4465796947479248,0.12282926589250565,-0.15614870190620422,-0.41952165961265564,0.19900619983673096,-0.03384602814912796,-0.09051883965730667,-0.21537771821022034,0.19908712804317474,-0.026852518320083618,-0.09686418622732162,-0.320258229970932,-0.24671147763729095,-0.23020590841770172,0.004753728397190571,-0.2324151247739792,0.43938636779785156,-0.29309508204460144,0.05793365091085434,0.028730086982250214,-0.08061747252941132,0.048753805458545685,0.024699339643120766,-0.0638308972120285,0.1889476478099823,-0.08503033965826035,0.06503119319677353,0.11190938949584961,-0.24032026529312134,0.051982976496219635,0.31538984179496765,0.1266934722661972,-0.334119588136673,-0.1999412477016449,0.27559056878089905,-0.33207929134368896,-0.22738726437091827,0.06612381339073181,-0.12856251001358032,0.2714025378227234,-0.12579995393753052,0.16187535226345062,-0.150162473320961,0.09230399131774902,-0.05726812407374382,0.2752322554588318,-0.2597295045852661,-0.34749528765678406,-0.15232060849666595,0.09719174355268478,-0.27165111899375916,0.1838887333869934,0.043130114674568176,-0.2728925049304962,0.009284144267439842,-0.032102931290864944,-0.05072921887040138,0.3106398582458496,0.33546018600463867,-0.19154536724090576,-0.03257125988602638,-0.021456951275467873,0.029392465949058533,-0.3336050808429718,0.1623510718345642,-0.6091689467430115,-0.03910700976848602,-0.028285784646868706,-0.09733652323484421,-0.06058372184634209,-0.39633211493492126,0.24239559471607208,-0.04873500391840935,-0.031505800783634186,0.12164349853992462,0.025792470201849937,0.02291618287563324,-0.1822265237569809,0.0014363705413416028,-0.1068696677684784,0.20440208911895752,-0.05161554366350174,-0.09402567893266678,-0.12320907413959503,-0.09037994593381882,0.06591813266277313,0.02408924698829651,0.09935330599546432,0.14808012545108795,0.11973848938941956,-0.1285894811153412,0.028407996520400047,-0.1987127810716629,-0.24392791092395782,0.1447918564081192,-0.045379865914583206,0.0442013181746006,0.04962557926774025,0.13952697813510895,0.2625320553779602,-0.28440216183662415,-0.031230458989739418,0.1566341072320938,-0.06695656478404999,-0.15120047330856323,-0.20735745131969452,-0.07886116206645966,0.09882818907499313,0.43120911717414856,0.1597931683063507,-0.2175186723470688
精彩,-0.08873705565929413,0.025049805641174316,-0.20357801020145416,0.41662436723709106,-0.21808834373950958,-0.01940486766397953,-0.1603817492723465,-0.3566780090332031,-0.37726277112960815,0.02874620445072651,-0.2032976597547531,0.16658738255500793,-0.32739943265914917,0.3340924382209778,-0.21900197863578796,0.009777984581887722,-0.17139536142349243,-0.00845512468367815,-0.05752117559313774,0.040366508066654205,0.8320038914680481,0.06747005134820938,0.030549297109246254,0.03559057414531708,-0.16877266764640808,0.0825892984867096,-0.009534524753689766,0.43210333585739136,-0.06708046048879623,0.0997932106256485,-0.07957320660352707,-0.08585232496261597,-0.5199962854385376,0.2696199119091034,-0.2164829969406128,0.07461799681186676,-0.004604037385433912,-0.03622585907578468,0.08882927149534225,0.3322969079017639,-0.27072063088417053,-0.43470633029937744,0.2342391461133957,-0.14589747786521912,-0.42902448773384094,0.14464972913265228,-0.28981083631515503,0.1953960806131363,0.2998336851596832,0.04347044974565506,-0.14633190631866455,0.4981657564640045,-0.0559086874127388,0.09589043259620667,-0.25212711095809937,0.312887579202652,0.40379565954208374,-0.13238126039505005,0.2559452950954437,0.5471684336662292,0.5575077533721924,0.15579098463058472,0.003107174066826701,0.3428332209587097,-0.4349414110183716,0.6532279253005981,-0.12623409926891327,-0.01872500777244568,0.1265268474817276,0.13955263793468475,-0.1410519778728485,0.7157901525497437,-0.05376112461090088,0.17662610113620758,0.34001395106315613,0.1713988035917282,-0.05301239341497421,-0.46606704592704773,0.4364267885684967,0.16095949709415436,0.49472469091415405,0.0326656773686409,-0.3379600942134857,0.1665470451116562,-0.10328791290521622,0.3632258474826813,-0.3010576665401459,0.028048016130924225,-0.04787604883313179,-0.1973351240158081,0.2839288115501404,-0.1171102374792099,0.010294981300830841,-0.051808591932058334,0.0873369425535202,0.2803401052951813,0.12380851060152054,-0.20281119644641876,0.38785645365715027,-0.04829240217804909,-0.48974934220314026,-0.39324700832366943,0.009294574148952961,0.0007375130662694573,0.11832170188426971,0.5119025111198425,0.13156722486019135,0.01684199832379818,0.1389637589454651,0.12310123443603516,-0.3869166970252991,0.12034375220537186,-0.4553745985031128,-0.05645730346441269,0.18351729214191437,-0.011515201069414616,-0.2379685640335083,0.04884657263755798,-0.28384068608283997,0.5189475417137146,0.5424314141273499,-0.3356555104255676,-0.21826879680156708,-0.2731800675392151,-0.203689843416214,-0.07178543508052826,-0.2666700780391693,0.1500568836927414,-0.06396719813346863,-0.15976329147815704,-0.15559598803520203,0.2898695170879364,-0.06425201892852783,-0.008051257580518723,0.1258794516324997,-0.08078981935977936,-0.091922827064991,-0.19233424961566925,0.039600078016519547,0.1712196171283722,0.060185838490724564,0.15947119891643524,-0.05604952573776245,0.138601154088974,-0.47970712184906006,0.09006352722644806,-0.015154239721596241,0.21284306049346924,-0.047866638749837875,-0.008457686752080917,-0.4385634958744049,-0.188099205493927,-0.07522541284561157,0.41355401277542114,0.03934324532747269,-0.054920393973588943,0.3260844647884369,-0.1489843875169754,0.058799054473638535,0.03572995215654373,-0.38174283504486084,0.10122396796941757,-0.15238720178604126,-0.2582107484340668,0.24961742758750916,0.4241977035999298,0.09337607026100159,0.10535924881696701,-0.2624651789665222,-0.5694252252578735,-0.028662657365202904,0.035898275673389435,-0.46028995513916016,-0.08610495179891586,0.07468914985656738,-0.1030302494764328,0.7175458669662476,-0.26688697934150696,-0.27678772807121277,0.24088048934936523,0.061650317162275314,0.21647876501083374,0.18297839164733887,0.22617517411708832,-0.48773255944252014,-0.14508013427257538,0.04719164967536926,-0.10790617763996124,0.41712668538093567,-0.15405534207820892,0.046080902218818665,0.07309193164110184,0.0380735918879509,-0.25437432527542114,0.24215704202651978,0.05975794792175293,-0.20608575642108917,-0.5884770750999451,0.0729232206940651,-0.16960324347019196,0.054215457290410995,-0.14242184162139893,-0.06426901370286942,-0.10316106677055359,-0.1432473361492157,0.037839580327272415,-0.05732358247041702,0.03205898404121399,-0.06207713484764099,-0.15661409497261047,-0.5515125393867493,-0.04839644581079483,-0.13763126730918884,-0.4391676187515259,-0.029599707573652267,-0.17979736626148224,0.32868465781211853,0.003333021653816104,0.10596305876970291,0.024083003401756287,-0.31193336844444275,0.4537353515625,0.03565400838851929,-0.057008933275938034,0.16245895624160767,0.026544008404016495,0.15862125158309937,0.2341991811990738,0.3104994297027588,0.23676972091197968,-0.2997705042362213,0.19909535348415375,0.3245667815208435,-0.45890727639198303,0.26732367277145386,0.20997166633605957,0.4005134403705597,-0.030420195311307907,0.13327357172966003,-0.07952427119016647,0.2552298903465271,-0.018998507410287857,-0.09569104015827179,0.3720897436141968,-0.08579500764608383,-0.12491397559642792,0.09196007996797562,-0.3800499737262726,-0.7226858735084534,0.6119263768196106,-0.1579374521970749,0.4534752070903778,-0.2637750208377838,0.14274464547634125,-0.16005542874336243,-0.011274212040007114,-0.3851557672023773,0.6342354416847229,0.0967196598649025,0.07604952901601791,0.14280956983566284,0.0247347429394722,0.09726569801568985,-0.11094588041305542,0.33023685216903687,-0.06989356130361557,-0.15355142951011658,-0.6936056017875671,-0.48318490386009216,-0.2587542235851288,0.03545202314853668,0.7828234434127808,-0.4216371178627014,0.28120288252830505,-0.008996455930173397,0.8494425415992737,-0.0234549418091774,0.11898015439510345,-0.04182687774300575,0.09302845597267151,-0.5865463614463806,-0.08109480887651443,0.11455854773521423,-0.16788773238658905,-0.5270829200744629,0.10562832653522491,-0.026984723284840584,-0.14691416919231415,0.3179541528224945,-0.1377481073141098,-0.19989335536956787,-0.5002629160881042,-0.16161338984966278,0.12073647230863571,-0.34020981192588806,0.37103572487831116,0.1464291363954544,0.22545449435710907,0.1796787977218628,-0.1122150719165802,0.025507407262921333,-0.054625947028398514,0.18622152507305145,-0.03647972643375397,-0.30630889534950256,0.000599787337705493,-0.10152068734169006,0.2490236610174179,0.2871546149253845,-0.21662569046020508,-0.2805631160736084,-0.027046579867601395,-0.012097254395484924,0.29331308603286743,-0.02823362499475479,0.35385045409202576,-0.19783689081668854,0.31983137130737305,-0.6762712597846985,-0.19797144830226898,0.1810404360294342,-0.1843014508485794,0.04601610451936722,-0.14781229197978973,-0.07304302603006363,0.05165763944387436,0.09432922303676605,0.12351668626070023,-0.029383515939116478,-0.36607152223587036,0.459714412689209,0.24956296384334564,0.13987849652767181,0.4674345850944519,0.07069443166255951,-0.27904385328292847,-0.05464087799191475,-0.5874698758125305,-0.06453080475330353,0.07074020802974701,0.32203128933906555,0.0875333696603775,0.005535617470741272,0.6508651375770569,-0.4274830222129822,-0.09515323489904404,0.19148381054401398,0.18486659228801727,0.09404323995113373,0.03834875300526619,-0.20151902735233307,0.07640844583511353,-0.05274340882897377,0.3130135238170624,-0.3228873312473297,-0.11199413985013962,0.035175908356904984,0.43828579783439636,-0.43651968240737915,-0.44610947370529175,0.09664152562618256,-0.39075228571891785,-0.13954882323741913,0.002902450505644083,-0.46935197710990906,0.04178841784596443,-0.10652370005846024,-0.14053376019001007,-0.058707345277071,0.4355005919933319,0.34550371766090393,-0.2907716631889343,-0.630737841129303,-0.05393087863922119,0.178512841463089,0.12166152894496918,0.6344794034957886,0.41963228583335876,0.28798341751098633,0.4417952597141266,-0.10841444134712219,-0.17199887335300446,0.19310852885246277,0.12576688826084137,-0.02402954176068306,-0.48559725284576416,0.15164315700531006,0.13937994837760925,0.04513167962431908,0.3503116965293884,-0.5083337426185608,-0.11469819396734238,-0.24197743833065033,-0.17794199287891388,0.41241732239723206,-0.13684967160224915,0.06881408393383026,-0.018947673961520195,0.5999913215637207,-0.04943382367491722
加快,-0.10130487382411957,0.0026324810460209846,0.19824786484241486,0.41208723187446594,0.24574564397335052,0.27372851967811584,0.1621558666229248,-0.26512008905410767,0.1211046651005745,0.3280603587627411,-0.2821824550628662,0.0943266972899437,-0.08367057144641876,0.05611598864197731,-0.1796625256538391,-0.014206689782440662,0.08473656326532364,-0.08003729581832886,0.28786540031433105,-0.07499946653842926,0.34872186183929443,0.23306025564670563,-0.21132901310920715,0.28320616483688354,0.0024130840320140123,0.07744316011667252,0.3905286192893982,-0.0038773133419454098,-0.12871554493904114,0.19472455978393555,-0.14995557069778442,-0.1262301802635193,0.2788737118244171,0.2025020718574524,0.08599764853715897,0.1294441819190979,0.11091674119234085,0.022857006639242172,0.14698654413223267,0.09145770967006683,-0.1560206562280655,-0.04584920406341553,0.09864301234483719,-0.4535423517227173,-0.2160990983247757,-0.25499624013900757,0.032821692526340485,0.2201843112707138,-0.00040039155283011496,-0.06457791477441788,-0.0769626647233963,0.14393995702266693,-0.4470190107822418,0.10276132076978683,-0.01210327073931694,0.08402951806783676,0.31204545497894287,0.024450894445180893,-0.10798358172178268,0.09454283863306046,0.029923103749752045,0.4493720829486847,0.40265461802482605,-0.15903006494045258,0.11770815402269363,-0.07396284490823746,-0.26811206340789795,-0.05390622466802597,-0.04742253199219704,-0.2898891568183899,-0.21457554399967194,0.4021078050136566,-0.010629978030920029,-0.18049375712871552,-0.1791219413280487,-0.044266991317272186,-0.14138662815093994,0.2822805345058441,-0.1163492277264595,0.2239406853914261,0.2538275718688965,0.17416773736476898,0.30653804540634155,0.09068695455789566,-0.020411653444170952,0.1900084912776947,0.16990436613559723,0.23917321860790253,-0.13338200747966766,0.19419929385185242,0.08327863365411758,-0.05146998167037964,0.2246425300836563,0.3370615541934967,-0.21572990715503693,-0.2384067177772522,-0.04320289567112923,-0.05834925174713135,-0.2773151695728302,0.34891560673713684,-0.15233410894870758,0.2556457221508026,0.03739001974463463,0.0758969709277153,-0.06521137058734894,0.09798579663038254,-0.03296282887458801,-0.2375996708869934,-0.007524085696786642,0.10969123989343643,-0.14755521714687347,-0.28635933995246887,-0.16621121764183044,-0.029499169439077377,0.6231709718704224,-0.3840029537677765,-0.10996558517217636,-0.12013266980648041,0.20479413866996765,0.003728035371750593,0.08635163307189941,-0.04689861461520195,0.4085488021373749,0.20290255546569824,0.033656880259513855,-0.23253706097602844,0.005567050538957119,-3.377789107616991e-05,-0.677383542060852,-0.3738608956336975,-0.2210352122783661,0.3934354782104492,-0.02216268889605999,0.19355598092079163,0.11050757020711899,0.35382771492004395,-0.2831154465675354,0.06430208683013916,0.03606437146663666,0.045722004026174545,-0.15934054553508759,0.403597354888916,-0.01125742681324482,-0.20840132236480713,-0.03360043093562126,0.03592313826084137,0.4798538088798523,0.06276405602693558,0.17531916499137878,0.02400813437998295,-0.2595914602279663,0.009202905930578709,0.25659307837486267,0.02104884199798107,-0.03304897993803024,0.044171810150146484,0.12029223144054413,-0.08966818451881409,-0.034879084676504135,0.03695017099380493,-0.3789454996585846,0.5194644331932068,-0.049528468400239944,-0.050172869116067886,0.1040608361363411,-0.15768399834632874,0.1572864055633545,0.1534293293952942,-0.061053913086652756,-0.1732463538646698,-0.17080922424793243,-0.05182890594005585,-0.05118175595998764,-0.0003846657054964453,0.13082316517829895,0.26443004608154297,0.09512536227703094,0.11301900446414948,0.218028724193573,0.019022252410650253,0.07586540281772614,0.075934499502182,-0.25345486402511597,-0.32698848843574524,-0.2187068909406662,-0.15913288295269012,0.15665608644485474,-0.4060247242450714,0.012422123923897743,-0.23264217376708984,-0.0887591615319252,-0.15246544778347015,0.23979777097702026,-0.26175588369369507,0.2366020828485489,-0.2552988827228546,-0.25094690918922424,-0.22483853995800018,-0.020085757598280907,-0.027773600071668625,0.3809260427951813,0.3775673508644104,0.18256090581417084,0.3879067897796631,-0.20672258734703064,-0.12763139605522156,0.04226932302117348,0.04270317405462265,-0.23152808845043182,0.04074164852499962,-0.3019223213195801,-0.025454189628362656,0.2292603850364685,0.06425124406814575,-0.2947348356246948,0.2823273241519928,0.13530978560447693,-0.22741517424583435,-0.11359772086143494,-0.43650075793266296,-0.03572744503617287,0.3095158040523529,0.4673641622066498,-0.41571715474128723,-0.10527193546295166,0.2665039002895355,0.279025137424469,0.2645440697669983,0.20442232489585876,-0.08849987387657166,-0.04272204637527466,-0.09339551627635956,-0.09357719123363495,0.012902696616947651,-0.03484161198139191,-0.10881317406892776,0.028276490047574043,0.003157061291858554,0.1587650626897812,-0.22731654345989227,-0.23663754761219025,0.11500518769025803,-0.2724725604057312,0.0735236182808876,-0.05480268597602844,-0.30405688285827637,0.09104607254266739,-0.07331875711679459,-0.418201744556427,0.21408845484256744,-0.06438213586807251,0.42463967204093933,-0.05322490260004997,0.04952947422862053,0.1405099332332611,0.007093258202075958,0.07027735561132431,0.168234184384346,-0.05478266254067421,0.1061004027724266,-0.08092952519655228,0.27591004967689514,-0.23833344876766205,0.15825210511684418,0.4710026681423187,0.17620792984962463,0.17989902198314667,-0.21992161870002747,-0.14804551005363464,-0.14482951164245605,0.1335548609495163,-0.13136790692806244,0.004830966703593731,0.11828222870826721,0.08598897606134415,0.060639042407274246,0.2011890411376953,0.2846323847770691,0.058058157563209534,0.09176184982061386,0.11341161280870438,0.0992162898182869,0.1410042643547058,-0.27383890748023987,0.038162603974342346,0.08356278389692307,0.21589581668376923,0.1516895592212677,0.06331801414489746,0.06657908111810684,0.19161538779735565,0.09552855789661407,-0.19606709480285645,-0.19073884189128876,-0.02658352255821228,0.20415303111076355,0.3304056227207184,0.3703918755054474,0.1908673793077469,0.30739346146583557,-0.17680494487285614,0.04931100457906723,-0.2219623625278473,0.17738765478134155,-0.037374261766672134,-0.10336468368768692,0.06938230246305466,0.08326051384210587,0.08035588264465332,0.0326104462146759,0.04809354618191719,-0.057623062282800674,0.11310366541147232,-0.1874680072069168,-0.18625859916210175,0.029173634946346283,0.0669398382306099,0.1110314279794693,-0.28930774331092834,-0.09500937163829803,0.050088707357645035,-0.031607117503881454,-0.3638665974140167,-0.09905717521905899,-0.09981187433004379,-0.06546489149332047,-0.015648581087589264,0.296320378780365,-0.07091784477233887,0.026426637545228004,-0.012623472139239311,0.44349366426467896,0.045046817511320114,0.20475392043590546,-0.1950250118970871,0.4146279990673065,-0.0741666927933693,-0.09531249850988388,0.42510053515434265,0.3723507523536682,-0.05642378330230713,0.15669527649879456,-0.3342864215373993,-0.09204738587141037,0.29721421003341675,-0.38921141624450684,0.09732450544834137,0.03458293527364731,0.04044597968459129,-0.2463926374912262,-0.1878969669342041,-0.13297432661056519,-0.06805551797151566,0.1374061554670334,-0.24053014814853668,0.2233889400959015,0.35060033202171326,0.0049447366036474705,0.22033452987670898,0.0440356619656086,0.10120709985494614,-0.3369430601596832,-0.025127142667770386,-0.009911219589412212,-0.08962185680866241,0.20046678185462952,0.42755040526390076,-0.06142197176814079,-0.24745512008666992,-0.13018396496772766,-0.0004653559881262481,0.003958897665143013,-0.0027898994740098715,-0.015738412737846375,0.07160022109746933,-0.27955856919288635,-0.0436139851808548,-0.058063313364982605,0.04537548869848251,-0.21040043234825134,-0.2984091639518738,0.08490428328514099,-0.034979745745658875,-0.03145779296755791,-0.2440595179796219,0.04715392366051674,0.05710738152265549,0.2694524824619293,-0.00958793144673109,-0.047846756875514984,-0.00939097534865141,-0.054277870804071426,-0.19759435951709747,0.32214879989624023,-0.2264540046453476,0.021924909204244614,0.09246442466974258,-0.1640605479478836,0.2779960632324219,-0.055413488298654556
名额,0.5751067996025085,-0.13672347366809845,-0.4602810740470886,-0.11801477521657944,0.02197182923555374,-0.1927470862865448,0.4089329242706299,-0.2344432771205902,-0.10151352733373642,0.11568408459424973,0.19141265749931335,-0.10303913801908493,-0.01228862814605236,-0.12639401853084564,0.3086390793323517,0.03276431933045387,-0.03505929559469223,0.7620806097984314,0.665276825428009,-0.03986000642180443,0.26773709058761597,0.08959917724132538,0.1728793829679489,0.49624156951904297,0.5360504984855652,-0.46576258540153503,0.1057959720492363,0.21252237260341644,0.02077212929725647,0.08157195150852203,-0.32351455092430115,-0.11927595734596252,0.09876652806997299,0.4367351830005646,0.3449675142765045,0.697946310043335,0.11643720418214798,0.554665744304657,-0.08120410889387131,-0.816354513168335,0.09564080089330673,-0.1749395877122879,-0.2591855823993683,0.16978439688682556,0.08016570657491684,-0.25708067417144775,-0.2836134731769562,0.30465254187583923,0.3684934377670288,-0.5879175662994385,-0.36940303444862366,0.4778319299221039,0.09585604071617126,0.7635630369186401,-0.3142203986644745,-0.37159407138824463,0.12239725887775421,-0.03349694982171059,0.5052736401557922,-0.3226144015789032,-0.5257328748703003,-0.019405553117394447,0.23848937451839447,0.14228302240371704,0.23302395641803741,0.327777624130249,0.0037316912785172462,0.08805500715970993,0.45414242148399353,-0.17768453061580658,0.08294554799795151,0.017917541787028313,-0.2100600004196167,-0.40112635493278503,0.1945052146911621,-0.06378384679555893,0.33207279443740845,0.2771981358528137,0.008295677602291107,-0.35763391852378845,-0.09772398322820663,0.2961983382701874,0.23993171751499176,0.16673356294631958,-0.3646264374256134,-0.10596046596765518,0.08454246819019318,-0.09171023964881897,0.16376876831054688,0.5107966661453247,-0.01323638204485178,-0.5183495283126831,0.26903006434440613,0.23330625891685486,-0.14527425169944763,0.10365761816501617,-0.12709660828113556,0.36951944231987,-0.43728187680244446,0.2539834976196289,-0.3409174680709839,-0.032966479659080505,0.3679269254207611,0.08929368853569031,0.2539635896682739,0.04980414733290672,-0.17646551132202148,0.08896197378635406,0.30099186301231384,0.08898207545280457,0.07039482146501541,-0.002314087701961398,-0.511558473110199,0.3433985412120819,0.3240264356136322,-0.20178548991680145,-0.1430661976337433,-0.5189560651779175,0.682098388671875,0.3091718554496765,0.013057965785264969,0.04166034609079361,-0.20340588688850403,0.09686198085546494,-0.5601553320884705,0.5036251544952393,-0.1963074803352356,0.3529209792613983,-0.05804247036576271,-0.018675759434700012,-0.2693602442741394,0.1435181349515915,0.2009003758430481,0.04140607640147209,0.2995699346065521,0.385171115398407,-0.11358421295881271,-0.08685927838087082,-0.05458742380142212,-0.00600554421544075,-0.061946071684360504,-0.06874080747365952,-0.0377265103161335,-0.12221638113260269,-0.1419852077960968,0.3888431489467621,-0.4891584813594818,0.043867383152246475,-0.37694066762924194,0.4968288838863373,0.2987414300441742,-0.15246273577213287,0.20214317739009857,0.045911796391010284,0.5129496455192566,0.47644510865211487,-0.17613592743873596,-0.12211824953556061,0.3193972110748291,0.11256635189056396,-0.028520669788122177,0.38066592812538147,-0.04302176460623741,-0.21707262098789215,0.2849009931087494,0.4831400513648987,0.19823744893074036,-0.11913039535284042,-0.28680482506752014,0.4224059581756592,-0.12896820902824402,0.04334361106157303,-0.20723938941955566,0.13590878248214722,-0.024032650515437126,0.20153813064098358,0.10596959292888641,0.5411568284034729,-0.004762450698763132,-0.10443773865699768,-0.07709426432847977,0.33699068427085876,0.015724172815680504,-0.4042336046695709,0.20855705440044403,-0.5504351854324341,-0.06369493156671524,0.3412338197231293,-0.09876597672700882,0.425889790058136,-0.016734234988689423,0.14713209867477417,0.49516651034355164,-0.6126936674118042,0.7306734919548035,0.04413129761815071,-0.025943845510482788,0.2374958097934723,-0.006641393527388573,-0.11829983443021774,0.08539237082004547,0.48598018288612366,0.30182603001594543,0.2739064693450928,-0.10279463231563568,-0.23903530836105347,0.20586158335208893,0.2950938045978546,0.0957498773932457,-0.08880896121263504,-0.11430589854717255,0.3683071732521057,0.09577738493680954,0.07279077172279358,-0.15553875267505646,0.4682939052581787,0.42155057191848755,-0.49979615211486816,0.1178346648812294,-0.06213003396987915,-0.31613996624946594,0.08589502424001694,-0.18413788080215454,-0.20852816104888916,0.5056018233299255,0.12833790481090546,0.20229488611221313,0.14010563492774963,0.6692261099815369,-0.15181343257427216,0.28890904784202576,-0.04020852968096733,0.10250909626483917,0.5094789266586304,0.2028777301311493,0.09199696779251099,-0.004772573709487915,0.04222876951098442,0.14694173634052277,0.18553046882152557,0.23726630210876465,0.03241649270057678,0.17900902032852173,0.1257110834121704,-0.24578513205051422,-0.11632393300533295,-0.33795231580734253,-0.03291533142328262,-0.03257894143462181,-0.007135220803320408,-0.23559217154979706,0.23092637956142426,0.316098690032959,0.10630548745393753,0.030160633847117424,0.42227721214294434,-0.08813794702291489,-0.035054244101047516,-0.030333880335092545,-0.008789571933448315,-0.3415280878543854,0.6285960078239441,0.3193674087524414,0.022501623257994652,-0.42744049429893494,-0.22266334295272827,0.10843930393457413,-0.4123929440975189,-0.1905164122581482,-0.1864248514175415,0.09390250593423843,-0.08786819130182266,-0.5181689262390137,0.004818708170205355,0.12270471453666687,0.19490160048007965,0.39552754163742065,-0.12036188691854477,0.39561235904693604,0.05340510979294777,0.3434247374534607,-0.29790839552879333,-0.5325803756713867,0.2583400011062622,-0.2895286977291107,-0.3246890604496002,-0.35248807072639465,0.2953718602657318,0.5399454236030579,0.05850192904472351,0.2118915617465973,-0.563471257686615,-0.45119285583496094,0.25021278858184814,-0.44877877831459045,0.32652151584625244,-0.04604543745517731,-0.008788994513452053,-0.16369184851646423,0.2645304501056671,0.5976077914237976,-0.7305459976196289,0.8016440272331238,0.3320131301879883,-0.5979263782501221,-0.3945946991443634,0.1790509670972824,0.14324595034122467,-0.41275936365127563,-0.23079228401184082,0.45916056632995605,-0.004145632032305002,-0.3595482110977173,-0.2277591973543167,-0.7079316973686218,0.2861493229866028,0.32352232933044434,-0.3962187170982361,-0.180433988571167,-0.13416904211044312,7.950826693559065e-05,-0.310588538646698,0.3676924705505371,-0.25981205701828003,-0.34181371331214905,-0.37230271100997925,-0.1366499811410904,-0.08870267122983932,0.3685547709465027,0.2811422348022461,0.47898751497268677,0.08152582496404648,-0.04225512221455574,0.06761035323143005,0.5150279998779297,-0.16578947007656097,-0.07651986926794052,0.0641070306301117,0.3702412545681,0.04792750999331474,0.09704019129276276,-0.13093030452728271,-0.10445892065763474,0.23469239473342896,0.2970949411392212,-0.3946559727191925,-0.11420278251171112,-0.2907527983188629,0.017423909157514572,0.5154648423194885,-0.18523988127708435,0.20088250935077667,0.1197485402226448,0.08954917639493942,-0.2812280058860779,0.48958006501197815,0.22094357013702393,0.07091907411813736,0.0397103950381279,-0.22688868641853333,-0.23356543481349945,0.31406599283218384,-0.28350839018821716,0.010089988820254803,-0.258430153131485,-0.0445251427590847,0.7704157829284668,-0.34781554341316223,-0.5575584769248962,-0.05042256414890289,0.4414326548576355,-0.2733137309551239,0.5603141784667969,0.06846271455287933,-0.22765442728996277,-0.2324056774377823,0.13447612524032593,0.054402146488428116,-0.04054540768265724,0.0023151824716478586,-0.22429217398166656,-0.1371360570192337,0.2879678010940552,-0.20911727845668793,0.19047702848911285,0.10631716251373291,-0.11923176050186157,-0.546222984790802,-0.10124608874320984,0.08583898097276688,-0.037404198199510574,-0.23611417412757874,0.28147023916244507,0.7310305833816528,-0.14186957478523254,-0.515898585319519,0.05103987827897072,-0.025005968287587166,0.7525418996810913,0.3760000765323639
渔业,0.049199290573596954,0.37318623065948486,0.32087287306785583,0.15671797096729279,0.15201810002326965,-0.39603278040885925,-0.07313358038663864,0.20575815439224243,0.04379454627633095,0.19323593378067017,-0.05080423876643181,-0.15221166610717773,0.04376699775457382,0.09713990986347198,0.19948646426200867,-0.07504535466432571,-0.027602460235357285,0.14840446412563324,-0.10179739445447922,-0.39610156416893005,0.07772007584571838,0.09392901510000229,-0.062367185950279236,0.12834283709526062,-0.34543243050575256,0.0715218335390091,0.04530886188149452,0.075546495616436,-0.27039390802383423,0.087647445499897,0.11147449165582657,-0.15250273048877716,-0.19957958161830902,-0.14307668805122375,0.056534238159656525,-0.19151979684829712,0.22524532675743103,-0.2634170949459076,-0.1182442307472229,0.3943004608154297,-0.33197730779647827,-0.3208272159099579,0.10280092805624008,0.04200047254562378,0.028378989547491074,-0.1597173660993576,0.07731117308139801,-0.17174942791461945,0.27657073736190796,0.172115296125412,0.0788225308060646,0.09558441489934921,-0.10525485128164291,0.21305033564567566,-0.01610003598034382,0.08725004643201828,-0.060983408242464066,-0.051961954683065414,0.16210873425006866,-0.01004855427891016,-0.1219375729560852,-0.06209768354892731,0.0015014035161584616,0.03464073687791824,-0.2545105814933777,-0.0054979994893074036,0.29326629638671875,0.10676881670951843,-0.16432440280914307,0.04149992763996124,0.12138302624225616,-0.1441827267408371,-0.03745032101869583,0.254683256149292,-0.177402526140213,0.05547711253166199,-0.057845644652843475,0.3700362741947174,0.25596702098846436,0.18267349898815155,-0.03293532133102417,0.13192027807235718,0.10046974569559097,0.3789639472961426,0.0006289054872468114,0.11874404549598694,-0.08680970966815948,0.2622576057910919,0.04649395868182182,0.08079623430967331,-0.09936125576496124,-0.23422729969024658,0.20509377121925354,-0.021137429401278496,-0.11052750051021576,-0.19064773619174957,-0.23825755715370178,0.08615926653146744,-0.3023343086242676,0.14783932268619537,-0.15720081329345703,-0.017458489164710045,-0.14818689227104187,-0.08765443414449692,-0.4560246467590332,0.11567266285419464,0.009633330628275871,-0.1268956959247589,0.030835799872875214,0.13416354358196259,0.14745977520942688,-0.12023023515939713,0.21179735660552979,-0.25217047333717346,0.07058960944414139,-0.09881934523582458,0.16769249737262726,0.05414962023496628,0.6001940369606018,-0.2488984316587448,0.029196955263614655,0.15383684635162354,-0.25179746747016907,-0.04249430447816849,-0.22247056663036346,0.26236414909362793,-0.03126882389187813,-0.181955486536026,0.14726091921329498,-0.20574036240577698,0.014534229412674904,-0.20274025201797485,-0.00039505111635662615,-0.21456743776798248,0.3265691101551056,0.3347013592720032,0.14821891486644745,-0.06558652222156525,0.1771766096353531,-0.15624168515205383,0.2015104591846466,-0.42725375294685364,-0.24135585129261017,0.4144324064254761,-0.3025554120540619,0.2112264484167099,0.22695033252239227,0.022299129515886307,-0.0685124322772026,0.057736948132514954,0.038522738963365555,-0.052979882806539536,0.2525772452354431,0.15189887583255768,-0.10870207846164703,0.26725438237190247,0.02126247249543667,0.13320690393447876,0.006482655648142099,0.2642129957675934,-0.12272334843873978,0.4176931381225586,-0.17156533896923065,0.08843258768320084,-0.46209684014320374,-0.11864226311445236,-0.023174550384283066,-0.5050995945930481,-0.0671907290816307,0.07593855261802673,0.4480424225330353,-0.32391881942749023,0.0700136199593544,-0.21100619435310364,-0.03996369615197182,0.16090555489063263,0.06995678693056107,0.2568321228027344,-0.1334351897239685,0.23595717549324036,-0.0646929070353508,0.07778500020503998,0.03594421222805977,0.04949042946100235,0.15366388857364655,-0.17684397101402283,-0.11744296550750732,-0.20783527195453644,0.4348127543926239,-0.032202884554862976,0.11086273193359375,-0.005210110452026129,0.3593204915523529,-0.1126888245344162,0.006973291281610727,0.020534371957182884,-0.48793816566467285,-0.395927757024765,0.24094335734844208,-0.15294183790683746,0.1832411140203476,0.0961177721619606,-0.19813431799411774,0.09556246548891068,0.08334153890609741,-0.1267317235469818,0.21783019602298737,0.14249609410762787,-0.3288687467575073,0.1540481150150299,0.15227505564689636,0.38784340023994446,0.09425570070743561,0.15175089240074158,-0.4379560053348541,0.18230529129505157,0.112694650888443,-0.4654456675052643,-0.4595818817615509,-0.5076889395713806,0.07829111069440842,-0.004673551768064499,0.24042141437530518,-0.2762967348098755,0.22518883645534515,-0.13526110351085663,0.15968503057956696,0.5981845855712891,0.4358234703540802,-0.08116903901100159,0.18791551887989044,0.09455464035272598,0.2006048560142517,0.046675387769937515,-0.2052706778049469,0.06682319939136505,0.05014288052916527,0.1102520301938057,0.10686112940311432,-0.05615951865911484,-0.28832846879959106,0.02115173265337944,-0.1413842737674713,-0.05829031765460968,0.2659432888031006,0.039071742445230484,0.14691855013370514,-0.01184054370969534,0.09936501085758209,-0.13701894879341125,0.05092088133096695,0.38430190086364746,-0.27299439907073975,-0.09433077275753021,-0.15784971415996552,0.03841705620288849,-0.13083377480506897,-0.02582317776978016,-0.2906050682067871,-0.17027929425239563,-0.45622751116752625,-0.16362303495407104,-0.09757431596517563,0.10182439535856247,0.08172116428613663,0.127208411693573,0.20410330593585968,0.09834280610084534,-0.24172379076480865,-0.40609368681907654,0.2832450866699219,-0.004913381300866604,-0.18948818743228912,0.2679809629917145,-0.0034509864635765553,-0.3600967526435852,0.1282506138086319,-0.05747294798493385,0.3003644645214081,-0.2022073119878769,0.02856563590466976,-0.022643491625785828,0.2925983965396881,0.13256019353866577,0.03792301192879677,0.4179626405239105,0.24851930141448975,-0.26103490591049194,-0.005452459212392569,-0.10780633240938187,0.02097674086689949,-0.40206730365753174,-0.32684943079948425,-0.4243745505809784,0.20978665351867676,0.12382932007312775,-0.04511146992444992,0.04141882434487343,-0.11047801375389099,-0.03181982412934303,-0.15865328907966614,-0.21435019373893738,-0.1824573129415512,0.013015607371926308,-0.1572382003068924,-0.1904512494802475,0.057120855897665024,-0.06210365891456604,-0.19269105792045593,-0.15319769084453583,-0.14430013298988342,-0.156463623046875,-0.04072126746177673,0.25548362731933594,0.08701073378324509,0.08429761230945587,-0.16799911856651306,-0.47272688150405884,-0.307047039270401,0.08049532771110535,0.09896712005138397,-0.2254265546798706,-0.21303172409534454,0.11964167654514313,0.1517278254032135,-0.007582137826830149,0.07650969177484512,-0.23770108819007874,-0.09026944637298584,0.1351696401834488,0.04616789147257805,0.10670231282711029,0.04539130628108978,0.21577788889408112,-0.12791749835014343,-0.009221992455422878,-0.007750234566628933,0.020877081900835037,0.05950117111206055,0.6933501958847046,-0.06004152446985245,0.10257018357515335,-0.02626793459057808,0.19489985704421997,-0.05651579797267914,0.05813613533973694,0.054371073842048645,0.32874050736427307,-0.2681289613246918,-0.30784550309181213,0.24237073957920074,0.19331036508083344,0.1027984544634819,-0.21936631202697754,-0.2247808575630188,0.09020952135324478,-0.002611676463857293,-0.0026915434282273054,0.19620713591575623,-0.032402753829956055,0.10882750898599625,0.27704766392707825,0.07040046900510788,0.3066619038581848,0.2567152678966522,0.05015530437231064,0.30719873309135437,-0.5467489957809448,-0.3267141282558441,0.2303086519241333,-0.1257411688566208,-0.05930591747164726,0.5546565055847168,0.03122125379741192,-0.11885679513216019,-0.04891175404191017,0.13237133622169495,-0.11665695905685425,0.12567368149757385,0.06971483677625656,-0.037234190851449966,-0.2995884120464325,-0.0011295980075374246,0.5071157217025757,0.13471300899982452,0.24376815557479858,0.19574081897735596,0.05764460563659668,0.06575951725244522,0.25838086009025574,0.21375443041324615,-0.02328397147357464,0.04024767875671387,0.33945125341415405,0.124456986784935,-0.19867241382598877,0.226909339427948,-0.20920714735984802,0.3995903730392456,-0.26495108008384705
首相,0.3382584750652313,-0.25475823879241943,-0.023772215470671654,-0.23604276776313782,0.11849307268857956,-0.5884843468666077,-0.5504468679428101,-0.12425374984741211,-0.2571561932563782,0.2946498990058899,0.1486879140138626,-0.33980226516723633,0.1911005824804306,-0.15832968056201935,0.14023125171661377,-0.09103342145681381,0.17823247611522675,-0.011863944120705128,-0.18422822654247284,0.14826487004756927,0.23940856754779816,-0.13815806806087494,-0.03362037613987923,-0.0643206536769867,-0.1506611853837967,0.1692166030406952,0.08119790256023407,0.23168224096298218,-0.1740644872188568,0.0928642526268959,0.07356880605220795,0.05408422276377678,0.25211894512176514,-0.151733860373497,-0.00032307577203027904,-0.05049031972885132,0.34755635261535645,-0.25788867473602295,-0.26905855536460876,0.3131255805492401,-0.43607795238494873,0.31599169969558716,0.29082056879997253,-0.002500202041119337,0.4371102750301361,0.13706302642822266,-0.10457722097635269,0.28613442182540894,0.2143092006444931,-0.11355163902044296,0.036981724202632904,0.14845825731754303,0.21796363592147827,-0.21210241317749023,0.3400101661682129,-0.023251593112945557,0.10532858967781067,0.019811488687992096,0.4120243787765503,0.2557261884212494,0.1655484139919281,-0.23994068801403046,-0.16919521987438202,-0.2358514368534088,-0.06861262768507004,-0.06754981726408005,-0.611325204372406,0.12845584750175476,-0.013167984783649445,-0.008317089639604092,0.23666097223758698,0.0030813205521553755,-0.44269686937332153,0.3502671420574188,0.44119641184806824,0.20941390097141266,-0.05419352278113365,0.20176692306995392,0.21331630647182465,-0.48101410269737244,0.19169874489307404,0.17351403832435608,-0.14172469079494476,-0.21270692348480225,-0.1768394112586975,0.18439364433288574,-0.1010746881365776,-0.1308165043592453,0.20769275724887848,-0.278744101524353,-0.03164829686284065,-0.11208805441856384,0.055014852434396744,-0.06981398910284042,0.02522081509232521,0.13197535276412964,0.11081448197364807,-0.06345269829034805,-0.1339433789253235,0.08329407125711441,-0.12812119722366333,-0.16315247118473053,-0.19838784635066986,0.31040430068969727,-0.23328779637813568,0.30585435032844543,-0.3145022392272949,0.33109965920448303,0.0954604223370552,0.1251431703567505,-0.2355450987815857,-0.32748523354530334,0.13682733476161957,0.06084323674440384,0.1592002511024475,0.054327961057424545,0.2722817659378052,0.0380212776362896,-0.10323017835617065,0.007595629896968603,0.24209903180599213,0.2712973952293396,0.21056051552295685,-0.20313943922519684,-0.013496230356395245,-0.17420914769172668,-0.15454088151454926,0.09218534827232361,-0.23208999633789062,0.3620959520339966,0.21510642766952515,0.3418665826320648,-0.07236887514591217,-0.27678197622299194,0.09628957509994507,0.1360410898923874,-0.11042220890522003,0.2467876821756363,0.24813778698444366,-0.06951357424259186,-0.0010793503606691957,-0.02595391683280468,0.09219298511743546,0.21772415935993195,0.03842659667134285,0.08859910815954208,-0.03971143066883087,0.6490208506584167,-0.44810906052589417,0.38308578729629517,0.02178756706416607,0.21212157607078552,0.042870815843343735,-0.35989677906036377,-0.07947460561990738,0.10902535915374756,-0.18172438442707062,0.12398185580968857,0.1833667904138565,0.06151716783642769,0.36821863055229187,0.062391337007284164,-0.2521660327911377,-0.26591017842292786,0.22758924961090088,-0.2596084475517273,-0.2515023946762085,-0.28465309739112854,0.33262476325035095,-0.0850449651479721,0.18648143112659454,0.027868803590536118,0.06483007967472076,-0.03662152960896492,-0.33158355951309204,0.3020051121711731,0.24497129023075104,0.07159265875816345,-0.16803883016109467,-0.08229497075080872,-0.6147541999816895,-0.2813912630081177,-0.058085162192583084,0.054978981614112854,-0.11285321414470673,0.08059033006429672,0.22710531949996948,0.20078791677951813,0.4149664044380188,-0.09925362467765808,-0.2506569027900696,0.23805393278598785,0.08040039241313934,-0.014385033398866653,-0.09726648777723312,-0.06775880604982376,-0.24590444564819336,-0.41430678963661194,-0.05465345457196236,-0.1802629977464676,0.008161276578903198,-0.14563225209712982,-0.017846563830971718,-0.20286476612091064,-0.42058759927749634,-0.04324837774038315,0.2657601237297058,-0.1506199985742569,0.1701945811510086,0.24766570329666138,-0.027542877942323685,0.3547675907611847,0.131631538271904,-0.4737379550933838,-0.23647893965244293,0.21661648154258728,0.03881540894508362,-0.37151527404785156,0.010157295502722263,-0.12915046513080597,-0.1361255794763565,0.42180734872817993,-0.24082818627357483,-0.15269091725349426,0.14356349408626556,0.04647494852542877,0.24840109050273895,0.009082240983843803,-0.244858056306839,-0.42735257744789124,0.17627868056297302,-0.21603530645370483,0.07101954519748688,-0.059749703854322433,-0.1652859002351761,0.12126176059246063,-0.41102418303489685,-0.09862715750932693,0.027493050321936607,0.051618754863739014,-0.06443577259778976,0.1005060002207756,-0.1251099854707718,-0.1028505265712738,-0.30093076825141907,-0.06477778404951096,-0.23605474829673767,0.35050225257873535,-0.34534257650375366,0.14703597128391266,-0.35913750529289246,0.22381535172462463,0.06028660759329796,-0.09159231930971146,0.16350282728672028,0.33270636200904846,-0.5921955704689026,-0.23952165246009827,0.05032980442047119,-0.08247599750757217,0.14323283731937408,-0.09412652254104614,0.3593910038471222,-0.11464913189411163,0.19991780817508698,0.2507762014865875,0.10803128778934479,0.026725806295871735,-0.08447375148534775,-0.07692083716392517,0.21297787129878998,0.01611129194498062,0.1303505301475525,0.06487174332141876,-0.0500270240008831,-0.07683158665895462,0.06580743193626404,0.05035945028066635,0.415985107421875,-0.023347685113549232,0.1999436318874359,0.0025296516250818968,-0.06719963997602463,0.034172624349594116,-0.12781798839569092,-0.09746326506137848,-0.16416393220424652,-0.009338822215795517,-0.0889497846364975,0.19069825112819672,-0.21322795748710632,-0.17527277767658234,-0.27216604351997375,0.17046843469142914,0.1269511878490448,0.3338519036769867,0.006678727455437183,0.1463882476091385,0.12003575265407562,-0.05368546023964882,0.004873992409557104,-0.16784639656543732,-0.08627410233020782,-0.02444351091980934,0.03539517521858215,-0.585055410861969,-0.1254471242427826,-0.14848177134990692,0.10519064217805862,-0.26895803213119507,-0.020814992487430573,-0.37654832005500793,0.27664387226104736,0.14599445462226868,0.07699737697839737,0.029077187180519104,0.07686034590005875,0.07705070078372955,-0.37431246042251587,0.19484952092170715,0.07046455889940262,0.07810866832733154,0.4724375307559967,0.2817138135433197,-0.3378729224205017,0.058403585106134415,-0.07044554501771927,-0.035851895809173584,-0.0525653138756752,-0.001421203138306737,0.07771134376525879,-0.22011040151119232,-0.21030357480049133,-0.10759414732456207,0.30318742990493774,-0.11008573323488235,-0.3171325623989105,-0.16247357428073883,0.08702678978443146,0.12505561113357544,0.08756086230278015,0.2603241503238678,-0.3250327408313751,-0.0179209616035223,0.09187434613704681,0.10165184736251831,-0.1722395420074463,-0.1219736784696579,-0.24822288751602173,-0.1170993521809578,0.3642164468765259,0.32390761375427246,-0.13916997611522675,0.043798621743917465,-0.6449739933013916,0.008287625387310982,-0.15654073655605316,-0.13278743624687195,0.1244976669549942,-0.36599206924438477,0.09058865904808044,0.20405465364456177,-0.03179948031902313,-0.03512946143746376,0.27782177925109863,0.19371528923511505,0.4645649790763855,0.07409822195768356,-0.00509956618770957,0.09087605774402618,0.08621229976415634,-0.16209138929843903,0.02972828783094883,-0.1318993717432022,-0.06513071805238724,0.12628942728042603,0.587897002696991,-0.007273426745086908,-0.1789764016866684,-0.32910704612731934,0.36510223150253296,0.19324791431427002,0.124427929520607,0.15634538233280182,-0.29617375135421753,0.24386395514011383,-0.25089988112449646,0.07619478553533554,-0.2759718894958496,-0.07388664782047272,0.004807645920664072,0.17864550650119781,0.1782803237438202,-0.13203638792037964,-0.09959383308887482,0.0036806275602430105,0.3537646532058716,0.506401002407074,0.19185592234134674,-0.023061851039528847
伙伴,-0.07860592752695084,-0.3531084954738617,-0.11220282316207886,-0.3201105296611786,-0.13256807625293732,0.0659264475107193,0.21985624730587006,0.0012764589628204703,-0.3756718635559082,-0.11887231469154358,-0.5490336418151855,-0.18190264701843262,-0.25054264068603516,-0.038841284811496735,-0.009023384191095829,0.1363430768251419,0.006092756986618042,-0.4809296727180481,-0.1978531926870346,0.09868072718381882,-0.1244681105017662,-0.1686192899942398,0.06348676234483719,0.045328304171562195,0.11791220307350159,0.27398213744163513,0.15284070372581482,0.037430740892887115,-0.4297085106372833,0.35806143283843994,-0.11504226177930832,-0.25349223613739014,0.12907026708126068,-0.1916254758834839,0.1928250938653946,-0.17276057600975037,0.07894948869943619,0.1508137285709381,-0.2243194431066513,0.09834880381822586,0.08604554086923599,-0.204630509018898,0.07995454221963882,0.09695453196763992,-0.2749522626399994,-0.26306721568107605,-0.44789057970046997,0.011477219872176647,0.08241640031337738,0.06639380007982254,0.03564559668302536,0.24075904488563538,-0.09808680415153503,-0.020388124510645866,-0.25800013542175293,0.2894380986690521,-0.17551612854003906,0.008225293830037117,0.06086410954594612,0.1504957526922226,0.27468615770339966,-0.06602142006158829,0.20263324677944183,-0.2682848870754242,0.14152805507183075,0.0030687034595757723,0.039139047265052795,0.07542230188846588,0.20799732208251953,-0.19877229630947113,-0.09391549974679947,0.22890017926692963,0.24425671994686127,0.026713073253631592,0.19832400977611542,0.18833939731121063,0.01789267547428608,0.14519888162612915,-0.11946406960487366,0.15112754702568054,-0.2043232023715973,0.14867903292179108,0.025961849838495255,-0.17051807045936584,-0.08478819578886032,-0.12944553792476654,-0.03603477030992508,0.3240722715854645,-0.052471715956926346,0.24532419443130493,0.38109588623046875,-0.0630749985575676,-0.032382782548666,0.02889508754014969,0.09880039840936661,0.3905152678489685,0.05917636677622795,-0.1575411558151245,-0.01946190744638443,-0.039134640246629715,-0.18591919541358948,-0.24249276518821716,0.3357442021369934,0.07303042709827423,-0.11251065880060196,0.049470700323581696,0.0029124547727406025,-0.23823761940002441,0.25542938709259033,-0.0872458815574646,-0.034508343786001205,-0.19840535521507263,-0.026111718267202377,-0.11167656630277634,-0.08745960891246796,-0.038332048803567886,-0.1025356724858284,0.29742199182510376,-0.2801119387149811,0.08160672336816788,-0.10373207181692123,-0.11473524570465088,-0.153239443898201,0.08580228686332703,-0.013802791014313698,-0.2337769865989685,-0.2097455859184265,0.1551727056503296,-0.09279202669858932,-0.08844753354787827,0.09435679018497467,0.1364661008119583,-0.2737533450126648,-0.22020308673381805,0.024438753724098206,0.17267562448978424,-0.20523245632648468,0.003957061562687159,-0.04963557794690132,0.33463767170906067,0.09388711303472519,0.25028786063194275,-0.20303498208522797,0.11564210057258606,-0.08087777346372604,0.05698833614587784,0.04891848936676979,0.071980319917202,0.26969024538993835,-0.03840525820851326,-0.15676532685756683,-0.23102645576000214,0.13252761960029602,0.02435842715203762,-0.06432557106018066,0.14282357692718506,-0.06775404512882233,0.20836947858333588,0.04111099615693092,0.12099263817071915,-0.0349048487842083,-0.18283337354660034,0.19400179386138916,0.06782315671443939,0.13027207553386688,0.044952090829610825,-0.05324828252196312,0.0753709152340889,-0.34350472688674927,-0.06219695508480072,0.1473894566297531,0.17483580112457275,-0.3242858052253723,-0.014470850117504597,0.06088314205408096,0.012820794247090816,-0.28391575813293457,0.20942382514476776,0.04026278108358383,0.21264541149139404,-0.21902717649936676,0.15827149152755737,0.07508528232574463,0.02806982956826687,0.11611057072877884,-0.0239022858440876,0.03340752795338631,-0.07653336226940155,-0.0033513477537781,0.019603533670306206,-0.20511697232723236,0.07915056496858597,0.22718560695648193,0.15223971009254456,-0.14852112531661987,-0.29583480954170227,0.17662930488586426,-0.23332692682743073,0.019487446174025536,0.09203183650970459,0.15509384870529175,0.19463123381137848,0.09676436334848404,-0.3287862241268158,0.10182250291109085,-0.008490685373544693,-0.14507660269737244,-0.0776200145483017,-0.4339458644390106,0.07070381194353104,0.14504018425941467,0.1526489108800888,0.15433019399642944,-0.10587956011295319,0.028765281662344933,0.01366716343909502,0.27221810817718506,-0.14915092289447784,-0.021572696045041084,-0.25320127606391907,-0.13347086310386658,0.08099634200334549,-0.12586192786693573,-0.2804097533226013,0.11032745987176895,0.3343353867530823,-0.09574202448129654,0.14686231315135956,0.11653848737478256,0.1907459795475006,0.01531289704144001,-0.06166984140872955,-0.14606216549873352,-0.0314747616648674,-0.26610007882118225,-0.05655119940638542,-0.34480974078178406,0.0046508233062922955,-0.07165233790874481,-0.2962271273136139,0.09993070363998413,0.19658291339874268,-0.22401872277259827,-0.06589578092098236,0.06997822225093842,-0.12397557497024536,0.12051230669021606,0.18701189756393433,0.06755172461271286,0.004644168075174093,-0.0988723635673523,0.005739249289035797,-0.14267918467521667,-0.07642298191785812,0.06377632915973663,0.039831701666116714,-0.10818718373775482,0.3856106996536255,0.14523771405220032,0.03372863307595253,-0.2282637357711792,-0.0030350119341164827,0.3648949861526489,0.11951576918363571,0.046667128801345825,0.45164141058921814,0.012202773243188858,-0.17765067517757416,-0.21157868206501007,0.11819545924663544,0.13291458785533905,0.06032831594347954,-0.3525746762752533,0.1506109982728958,0.3951885998249054,0.010137256234884262,0.3071901202201843,0.21495994925498962,-0.13369962573051453,0.24137000739574432,-0.00720210699364543,0.01042612362653017,0.05649101361632347,-0.11107566952705383,-0.2577745020389557,0.029071439057588577,-0.16893447935581207,-0.04564021900296211,-0.36631688475608826,-0.40103083848953247,-0.12433779984712601,-0.280296266078949,-0.36846923828125,0.08000095933675766,0.1880328208208084,0.02886241301894188,-0.11710323393344879,0.25029781460762024,0.03369205817580223,0.10170876234769821,-0.27378568053245544,-0.11769959330558777,0.01461542584002018,-0.12796859443187714,0.10872933268547058,0.005360657349228859,-0.08356772363185883,0.12520824372768402,0.21564427018165588,0.11226887255907059,0.13587063550949097,0.04019229859113693,0.16167953610420227,0.1381661742925644,-0.19107164442539215,0.3533201515674591,-0.020745020359754562,0.0042316969484090805,-0.24613718688488007,0.3970780670642853,-0.007906151935458183,-0.12861092388629913,-0.12232820689678192,0.1774943619966507,-0.07667776942253113,-0.22969698905944824,0.019586307927966118,0.19627593457698822,0.06581761687994003,-0.14249107241630554,-0.016963224858045578,-0.21926958858966827,0.10767768323421478,0.0601281076669693,-0.05887557193636894,-0.46900326013565063,-0.4361141324043274,0.16681140661239624,-0.16443730890750885,-0.023192204535007477,0.2695465385913849,0.018702881410717964,-0.006023036316037178,-0.3858616054058075,-0.05583259090781212,0.12227103114128113,0.06331296265125275,-0.12375475466251373,0.14721792936325073,0.05104583129286766,0.1038418635725975,-0.28242626786231995,-0.05346192046999931,0.07071168720722198,-0.10583174228668213,-0.0024852328933775425,0.22442767024040222,-0.29276835918426514,-0.1398254632949829,-0.04999694600701332,0.14729195833206177,-0.2766491174697876,-0.04570930823683739,-0.26852163672447205,-0.07243933528661728,0.05000839754939079,0.0022846641950309277,0.32280802726745605,-0.2681957483291626,0.09142632782459259,0.14485694468021393,-0.15400899946689606,0.0033034777734428644,0.00893767736852169,-0.15493057668209076,0.2825220823287964,0.3214467167854309,0.08494742959737778,0.2886662483215332,0.15658067166805267,-0.16395464539527893,-0.2737143039703369,0.12910230457782745,-0.034415800124406815,0.06462318450212479,-0.22719860076904297,0.10917076468467712,0.2805505692958832,0.3324347734451294,-0.011885641142725945,0.0400267094373703,0.1057436615228653,-0.09248334169387817,-0.10638532042503357,0.19830134510993958,-0.11171681433916092,0.10080594569444656,0.04711949825286865,0.09707961231470108,0.12096501886844635
尊重,0.26640090346336365,0.02765827253460884,-0.1350027471780777,-0.6611785292625427,-0.2976001501083374,-0.33579307794570923,0.21589235961437225,-0.009096108376979828,-0.14574246108531952,0.04026529937982559,-0.03940410912036896,-0.16043969988822937,-0.315793514251709,-0.031676843762397766,-0.12966181337833405,0.21502739191055298,0.17434416711330414,-0.14699286222457886,-0.1470455378293991,-0.09652219712734222,-0.05827975645661354,0.014053435064852238,0.49425068497657776,0.6163204312324524,-0.2639840543270111,-0.09172569215297699,0.21115802228450775,0.04743128642439842,-0.1704123169183731,0.6371122002601624,0.25550252199172974,0.11317373812198639,0.04699117690324783,0.3606490194797516,0.17571137845516205,0.10218091309070587,0.3259265422821045,-0.1261839121580124,-0.06079912930727005,0.5697370171546936,0.07450416684150696,-0.21693241596221924,0.0036939645651727915,0.07259687781333923,0.4484892785549164,0.07167844474315643,-0.19727295637130737,-0.14170940220355988,-0.08447246253490448,-0.03604523092508316,0.28384894132614136,0.07614179700613022,-0.10867912322282791,0.17026863992214203,-0.028473882004618645,0.10456748306751251,0.02526157535612583,0.1435321420431137,0.5517461895942688,-0.012716209515929222,-0.12533631920814514,0.09800611436367035,0.19047369062900543,0.2084309458732605,-0.06677677482366562,0.06401002407073975,-0.09566308557987213,0.12437073886394501,0.19939298927783966,-0.16112488508224487,0.07687266916036606,0.24678505957126617,0.041986677795648575,0.030342360958456993,0.023267880082130432,0.09042868763208389,0.009342808276414871,-0.1831894963979721,-0.141951784491539,0.08757250010967255,-0.24768953025341034,0.035927578806877136,0.10189798474311829,-0.0020706772338598967,0.3951403498649597,-0.14618921279907227,-0.09285955876111984,0.34240877628326416,-0.08372431248426437,0.16376064717769623,0.04423724114894867,-0.05441347509622574,-0.06654680520296097,0.1825525313615799,0.05255299434065819,-0.1708957999944687,-0.06508666276931763,-0.13558879494667053,0.06112265586853027,0.10967572778463364,-0.1753322333097458,-0.025691023096442223,0.4668716490268707,-0.10542747378349304,0.015234045684337616,0.0001554757618578151,-0.18586523830890656,-0.437055379152298,-0.04810170829296112,-0.08955151587724686,0.21364064514636993,0.4859406352043152,-0.022491853684186935,-0.10069893300533295,-0.23062269389629364,-0.22620950639247894,-0.30706071853637695,0.2119685709476471,0.0558534599840641,-0.27517029643058777,0.7037584185600281,-0.14205960929393768,0.13947251439094543,0.0035569341853260994,0.015495608560740948,0.00013531830336432904,0.04676111042499542,0.06652036309242249,0.04523101821541786,-0.04270375519990921,0.32298651337623596,0.23389799892902374,-0.1224917322397232,0.004529767204076052,0.23911984264850616,0.09945407509803772,0.15724293887615204,0.32929301261901855,-0.08298520743846893,0.057710930705070496,-0.3218114674091339,-0.1247156634926796,-0.34738028049468994,0.07375717163085938,-0.22478602826595306,-0.06542836874723434,0.09620536863803864,-0.005180820357054472,0.18254157900810242,-0.322095662355423,-0.06134350597858429,0.19845592975616455,0.09856131672859192,0.15058940649032593,-0.47635701298713684,-0.1258670687675476,0.13856466114521027,0.2983624041080475,0.22198235988616943,-0.1400010585784912,-0.3315172791481018,0.07309947907924652,-0.0592447929084301,-0.17747549712657928,0.502817690372467,-0.011055613867938519,0.183082714676857,0.15536682307720184,-0.061718739569187164,-0.03952668234705925,-0.25074437260627747,-0.2878793776035309,0.1251307874917984,-0.04296538978815079,-0.2893335223197937,0.056524232029914856,0.2480655461549759,0.3570873439311981,0.03402404487133026,-0.12803231179714203,-0.007641398347914219,0.132978618144989,-0.1518690586090088,-0.3669932782649994,-0.22267942130565643,0.2155575007200241,0.19047798216342926,-0.10665902495384216,0.1412518471479416,-0.09858880192041397,-0.16819797456264496,0.06030762940645218,0.16689930856227875,-0.07003522664308548,-0.0007524968823418021,-0.015496631152927876,-0.34172356128692627,-0.18107566237449646,0.030510593205690384,-0.13571882247924805,0.45148327946662903,0.1375468671321869,-0.25490161776542664,0.1874316930770874,-0.027797307819128036,-0.12115437537431717,0.10565830767154694,-0.06463053822517395,-0.011211936362087727,-0.07023019343614578,-0.03839724138379097,0.3897371292114258,0.19026316702365875,-0.02073175087571144,-0.2989991307258606,0.012053721584379673,0.21236295998096466,0.06676231324672699,-0.16638784110546112,-0.024349914863705635,-0.10261667519807816,0.02377377636730671,-0.006991575006395578,-0.332986056804657,-0.13882747292518616,0.2880136966705322,0.08082307130098343,0.10506867617368698,0.07072295248508453,0.1472328007221222,0.05162595957517624,-0.02325679175555706,-0.01653340458869934,-0.16614320874214172,-0.27245086431503296,0.28282925486564636,-0.11547784507274628,-0.09087089449167252,0.18126003444194794,-0.0745416209101677,-0.10983125120401382,0.09673862904310226,-0.40553680062294006,0.025340907275676727,0.078803651034832,-0.2311771810054779,0.18890704214572906,-0.0949515551328659,-0.35606592893600464,0.05539647489786148,-0.13067756593227386,0.3018801212310791,-0.001446419395506382,0.10395003855228424,-0.08607643097639084,-0.003962151240557432,-0.15312914550304413,0.08580653369426727,-0.06137559190392494,0.164462611079216,0.318297803401947,-0.01752857305109501,-0.04953465983271599,0.06893327087163925,0.4945053160190582,0.12152385711669922,0.1020922139286995,-0.10780451446771622,-0.2605489492416382,0.02670568786561489,0.07698830217123032,-0.015435109846293926,-0.3372866213321686,-0.07038737088441849,0.1727088987827301,-0.10337397456169128,0.23482239246368408,0.18386362493038177,0.07180322706699371,-0.002465045778080821,0.2766096293926239,-0.17133085429668427,0.026680294424295425,-0.10855768620967865,-0.034110598266124725,0.16164332628250122,-0.45813053846359253,-0.177546888589859,-0.11129478365182877,-0.06435901671648026,-0.042893219739198685,-0.227073535323143,-0.24768339097499847,-0.0686417818069458,-0.38519129157066345,0.02464357577264309,0.20081637799739838,0.3294653296470642,-0.003236934309825301,-0.10713009536266327,-0.19198736548423767,-0.18923774361610413,-0.301891952753067,-0.15331843495368958,-0.23905423283576965,-0.17466379702091217,0.10957318544387817,0.2320689857006073,0.026510611176490784,0.16239860653877258,0.13519056141376495,-0.052327580749988556,0.2687309980392456,-0.32986465096473694,-0.07536671310663223,0.30686095356941223,0.11461622267961502,-0.014065404422581196,-0.1547223925590515,0.013837059028446674,-0.10916882008314133,-0.03492733836174011,0.12922585010528564,0.15987424552440643,-0.030543239787220955,-0.510536253452301,0.14480550587177277,0.1843697428703308,-0.016852376982569695,-0.14669807255268097,0.3136979639530182,-0.4533141255378723,0.2697996497154236,0.2217637449502945,0.0018144674832001328,-0.08518416434526443,-0.34134042263031006,0.10600049793720245,0.22309012711048126,0.11451322585344315,-0.2095647007226944,0.3347955346107483,-0.49358654022216797,0.4044281542301178,0.3184546232223511,-0.1894197165966034,0.3207290768623352,0.16252070665359497,-0.08657854795455933,-0.04917789623141289,-0.029946597293019295,-0.17867916822433472,0.07717464119195938,0.2594558000564575,-0.3289642035961151,-0.12109331041574478,-0.19664184749126434,0.33427396416664124,-0.23209501802921295,-0.059368859976530075,-0.16707177460193634,-0.06470012664794922,-0.17844723165035248,0.3145846724510193,0.15787987411022186,0.16617967188358307,0.034910693764686584,-0.1404050588607788,-0.32291629910469055,0.16586017608642578,0.2111438810825348,-0.016864992678165436,-0.4582318961620331,0.20454809069633484,-0.03206785395741463,-0.19379819929599762,0.07331734895706177,-0.04049993306398392,0.2431664615869522,0.14253748953342438,0.13435466587543488,-0.4115227162837982,0.08679695427417755,-0.10841740667819977,-0.05702783539891243,0.08470313996076584,0.3083423972129822,0.1464649885892868,0.43035200238227844,0.0020268105436116457,0.12607580423355103,0.13716372847557068,-0.25180327892303467,-0.027507605031132698,0.3609026074409485,-0.09727145731449127,0.3469071090221405,-0.0645889863371849,-0.0012639928609132767,-0.05179942026734352
会谈,0.22920192778110504,0.3064921498298645,-0.16896003484725952,0.009455818682909012,0.1568765938282013,-0.7022373080253601,0.27444136142730713,-0.17546314001083374,-0.23765704035758972,-0.028377078473567963,0.03483093902468681,-0.07099130749702454,0.03127216920256615,-0.1214115098118782,0.09194400161504745,-0.04750612750649452,-0.029667852446436882,0.43507280945777893,-0.36269238591194153,-0.09694865345954895,-0.056451160460710526,-0.13568592071533203,-0.25305095314979553,-0.0578608401119709,-0.12433798611164093,0.04749894142150879,0.27260637283325195,0.25113630294799805,-0.3549548387527466,-0.014869380742311478,-0.058932702988386154,-0.005609711166471243,-0.27620407938957214,-0.22416363656520844,0.07046084105968475,-0.14969314634799957,0.4055268466472626,-0.18494901061058044,-0.27978309988975525,0.08998031914234161,-0.06599396467208862,-0.04057643562555313,0.03517807275056839,0.23095279932022095,0.20520959794521332,-0.18195004761219025,-0.11137276142835617,-0.42259159684181213,-0.10034540295600891,0.08187589794397354,0.15140099823474884,0.09928227216005325,0.030149854719638824,0.0722326934337616,0.1597992181777954,0.3647124469280243,0.14207403361797333,0.10832855105400085,0.3755282163619995,0.17668180167675018,0.09643203765153885,-0.13162672519683838,-0.18175460398197174,0.4598907232284546,0.20110401511192322,0.1403418332338333,-0.40554478764533997,-0.024700695648789406,0.0733349621295929,-0.0830976814031601,0.30270734429359436,-0.023948922753334045,0.16242319345474243,0.04893866926431656,-0.15223325788974762,0.05674885958433151,0.09173081815242767,0.02664170041680336,0.350931853055954,0.3324507474899292,0.03651653602719307,0.2364652007818222,0.2805567681789398,0.435652494430542,-0.36513057351112366,0.15100879967212677,0.026386212557554245,-0.03944747895002365,0.0184157844632864,0.11904221028089523,0.3660866320133209,-0.006437833420932293,0.4106365740299225,-0.20240044593811035,-0.3604160249233246,0.13316425681114197,-0.06710757315158844,-0.30503711104393005,-0.060452114790678024,0.11128200590610504,0.10127568244934082,0.058171287178993225,0.2998489439487457,0.10717371851205826,-0.034910980612039566,-0.07481766492128372,0.07395607233047485,0.010801616124808788,-0.432782918214798,-0.19477343559265137,-0.07078336924314499,-0.007483737543225288,0.021901125088334084,-0.1729494035243988,0.4017147421836853,0.33540552854537964,0.02174113504588604,-0.025386754423379898,0.39010030031204224,0.062713123857975,0.40169090032577515,0.0030458252876996994,-0.00533091789111495,-0.34370797872543335,0.20854920148849487,0.11777795851230621,0.07618249207735062,-0.03135409951210022,-0.1477319300174713,0.12412090599536896,-0.11011800915002823,-0.16080166399478912,0.021291067823767662,-0.15489289164543152,0.02276447042822838,0.14683587849140167,-0.30488121509552,0.3006875813007355,-0.22960259020328522,-0.2251543551683426,-0.18641404807567596,0.18974584341049194,0.14861713349819183,-0.4703788161277771,-0.09112771600484848,0.013032280839979649,-0.27134838700294495,0.12790942192077637,-0.15654267370700836,0.2325316071510315,-0.05012586712837219,0.03328875079751015,0.16858305037021637,-0.09771297872066498,-0.07507526874542236,0.017964454367756844,-0.4084828495979309,-0.09182519465684891,0.057207245379686356,0.09861181676387787,0.24941974878311157,-0.312190443277359,0.14552909135818481,-0.12246603518724442,0.14902403950691223,-0.054126717150211334,-0.14452672004699707,-0.057126764208078384,-0.29465556144714355,-0.3278168737888336,0.27761876583099365,-0.4940528869628906,0.05253215879201889,-0.023994766175746918,-0.004211009945720434,-0.03827638551592827,-0.10920656472444534,0.18932445347309113,-0.20288483798503876,-0.06424394249916077,-0.08652953058481216,-0.025555556640028954,-0.02534238062798977,-0.2311447709798813,-0.19594210386276245,0.13671880960464478,0.27564433217048645,-0.12380573898553848,0.078752301633358,-0.4101696014404297,0.09480471909046173,0.24430735409259796,-0.0007643586723133922,-0.3035259246826172,-0.14983102679252625,0.018944602459669113,-0.3985587954521179,-0.1678011566400528,0.09616585820913315,-0.03790437430143356,-0.11120568960905075,0.05648830905556679,-0.18799255788326263,0.04689660668373108,0.0014248739462345839,0.20457060635089874,0.2158399224281311,0.08336246013641357,-0.3692624270915985,0.012720073573291302,0.3891490697860718,-0.015318023972213268,0.20755156874656677,0.11400479823350906,-0.11586447805166245,0.05302077904343605,0.17620503902435303,-0.044653747230768204,-0.4071269631385803,-0.011048432439565659,-0.19568537175655365,0.11953416466712952,0.1459880769252777,-0.45909053087234497,0.31649094820022583,-0.11013096570968628,-0.05471421405673027,-0.16384953260421753,-0.014880554750561714,-0.037634752690792084,-0.04282938688993454,0.2434406727552414,0.22233396768569946,-0.12686261534690857,0.009459035471081734,0.2066272646188736,-0.3563227951526642,0.009362629614770412,0.14888574182987213,-0.07606630772352219,0.19659936428070068,-0.005623227916657925,-0.0045418888330459595,-0.284637451171875,-0.0032255484256893396,0.10137396305799484,0.05289597436785698,0.3116183280944824,-0.13619005680084229,0.10496886819601059,0.2240152209997177,0.3976776897907257,-0.33328768610954285,0.42454802989959717,0.17500454187393188,0.4234432280063629,0.08155253529548645,-0.025595953688025475,-0.12268021702766418,0.0764223113656044,0.08413129299879074,0.30809682607650757,-0.11259229481220245,0.23043909668922424,0.5012210607528687,0.2878071367740631,0.008674702607095242,-0.11522044986486435,-0.2675442397594452,0.16575995087623596,-0.2546900510787964,0.22829464077949524,-0.32001742720603943,-0.13968661427497864,-0.009447295218706131,0.12163350731134415,0.20581458508968353,0.08346853405237198,0.18908007442951202,-0.329480916261673,0.17975006997585297,-0.22070595622062683,0.06753681600093842,0.22724707424640656,-0.11401035636663437,0.1136615127325058,-0.08407220244407654,-0.37456128001213074,-0.19625571370124817,0.17018193006515503,-0.2426881045103073,-0.3420441150665283,-0.03853350132703781,-0.21797122061252594,0.014016129076480865,0.280670166015625,-0.17813628911972046,0.3156440556049347,0.4759645462036133,0.1137842908501625,0.030968686565756798,-0.029792141169309616,-0.08976059406995773,-0.46502965688705444,-0.09034573286771774,-0.054144736379384995,-0.06083760783076286,0.3438902795314789,-0.1120651364326477,-0.08150874078273773,-0.06429838389158249,0.04957755655050278,-0.08351057022809982,-0.23339612782001495,-0.3807704746723175,0.2481585294008255,0.318325400352478,-0.24502862989902496,-0.1894432157278061,0.1297718584537506,0.021987540647387505,-0.07026033848524094,0.20177479088306427,-0.1789424866437912,-0.005679101217538118,-0.1373174637556076,0.015538906678557396,0.2500556707382202,0.10201175510883331,-0.08503212034702301,0.5043870210647583,-0.2500797510147095,-0.14391177892684937,0.0478682667016983,0.12641476094722748,-0.09549763798713684,0.23229634761810303,0.2494877576828003,0.5193421840667725,0.3691633343696594,-0.11721095442771912,0.15991348028182983,-0.36954963207244873,-0.08742233365774155,-0.06946758925914764,-0.25394174456596375,-0.08704910427331924,0.045937679708004,0.05584784969687462,-0.09709139913320541,0.1519986242055893,0.27121925354003906,0.01931357942521572,-0.008010324090719223,-0.17350013554096222,0.04588715732097626,0.06056036427617073,-0.042512863874435425,-0.22912628948688507,-0.12272443622350693,0.30318203568458557,-0.14885281026363373,0.03859024494886398,0.22923414409160614,-0.13810524344444275,0.017600063234567642,-0.1517578512430191,-0.03646097704768181,-0.24626053869724274,0.35746634006500244,0.04569775611162186,0.12610292434692383,0.006427930202335119,0.02703847363591194,0.06102707237005234,-0.42595043778419495,0.11411876231431961,0.08144103735685349,0.0031442816834896803,-0.14520263671875,-0.07863005995750427,-0.15046800673007965,-0.07185721397399902,0.2797388434410095,-0.3901340365409851,0.3230554759502411,0.09912915527820587,0.1340077817440033,-0.46502193808555603,-0.1477397233247757,-0.03225265443325043,0.05130990594625473,-0.07435137033462524,0.024324987083673477,0.44176536798477173,0.10049513727426529,0.4944683909416199,0.10366133600473404,0.25124767422676086,0.20293192565441132
投资,-0.09470583498477936,-0.008622569963335991,0.15186356008052826,-0.24508750438690186,0.28494173288345337,-0.23920612037181854,-0.27661144733428955,0.02938370779156685,-0.024160197004675865,-0.053265661001205444,0.13362471759319305,-0.37128686904907227,0.12491188943386078,0.3839314579963684,-0.014265840873122215,-0.03909769281744957,0.04833470657467842,0.06223826855421066,0.0049302587285637856,-0.34937945008277893,0.2157530039548874,0.2818205952644348,-0.19887131452560425,0.3318086862564087,0.1361820250749588,0.15047356486320496,0.03185322508215904,-0.12533392012119293,-0.015331748872995377,0.01565292291343212,-0.1340690702199936,-0.07803506404161453,-0.09584398567676544,0.018738560378551483,-0.023911716416478157,-0.32366663217544556,0.17594900727272034,-0.1035061851143837,0.2658827602863312,0.1484796106815338,-0.42363080382347107,-0.1029033288359642,0.23010578751564026,-0.02183414250612259,-0.018211284652352333,-0.3254709243774414,0.012340661138296127,-0.041194479912519455,0.22175706923007965,-0.04889271780848503,-0.06794046610593796,0.19403469562530518,-0.03623179346323013,0.16723331809043884,-0.002416877308860421,0.21094155311584473,0.004219532012939453,0.06161219999194145,0.09489350020885468,-0.23834693431854248,0.09801241010427475,0.02730260044336319,0.2887272536754608,0.37510421872138977,0.04082709550857544,-0.19708789885044098,0.2523733973503113,0.13766168057918549,-0.20661239326000214,-0.3269835114479065,0.17250165343284607,-0.004585758782923222,-0.1903311014175415,0.22174321115016937,-0.43774133920669556,0.3105679154396057,-0.16101355850696564,0.2684132158756256,0.06529934704303741,0.15491129457950592,-0.09705452620983124,0.016543131321668625,0.23906852304935455,0.04944995790719986,-0.17441639304161072,-0.008725196123123169,-0.18364115059375763,0.11424759775400162,0.039207540452480316,0.010348908603191376,0.10002821683883667,-0.24707868695259094,0.3202211558818817,0.07440879940986633,-0.09360919147729874,-0.08629319816827774,0.09407855570316315,0.051051195710897446,-0.18155305087566376,0.0517255961894989,-0.063882976770401,-0.052640125155448914,0.24264732003211975,0.20154164731502533,-0.23066982626914978,0.07307139784097672,-0.0598016120493412,0.039194896817207336,0.20680783689022064,0.17920903861522675,0.07826883345842361,-0.20201177895069122,0.1784793585538864,-0.3679314851760864,0.4110076427459717,-0.2146778702735901,0.48376405239105225,-0.16049285233020782,0.24597077071666718,0.026915371417999268,0.062064021825790405,-0.07306256145238876,-0.10577229410409927,0.19096289575099945,-0.03278274089097977,-0.024883965030312538,0.15281863510608673,-0.23525270819664001,-0.10315124690532684,-0.2634379267692566,-0.2240907996892929,-0.06947626173496246,0.137001171708107,0.08373609930276871,-0.2591603398323059,0.6832755208015442,0.042730286717414856,-0.09310601651668549,-0.1210610643029213,0.000261682114796713,-0.23087157309055328,-0.20759780704975128,0.21221782267093658,-0.11837679147720337,-0.06609180569648743,-0.008715842850506306,0.40032947063446045,-0.1444999724626541,-0.18912366032600403,0.022171180695295334,-0.0964367687702179,-0.1962001919746399,0.29627275466918945,-0.12193720787763596,0.12603364884853363,-0.034687936305999756,-0.10185631364583969,0.1203189492225647,0.09141199290752411,-0.014313003979623318,-0.33615559339523315,0.4187367856502533,0.05661463364958763,-0.07389192283153534,-0.14357523620128632,0.01305792760103941,0.03935491666197777,-0.0987778902053833,-0.12903349101543427,-0.25636783242225647,0.15666687488555908,-0.3584150969982147,0.17772725224494934,-0.17393554747104645,-0.004812961909919977,-0.06925317645072937,-0.1081133782863617,0.11006810516119003,0.19355374574661255,-0.0356794148683548,-0.28395020961761475,-0.23523840308189392,0.11128018796443939,-0.2718763053417206,0.0876542255282402,0.0500028058886528,0.12069224566221237,-0.4877098500728607,0.1775168627500534,-0.046352364122867584,0.002827518619596958,0.13710083067417145,0.37790659070014954,-0.15236614644527435,-0.1515195369720459,0.14884407818317413,-0.16375869512557983,-0.18936745822429657,-0.08602619171142578,-0.14138171076774597,0.424385666847229,-0.07967059314250946,-0.16986730694770813,-0.06769600510597229,-0.1715114414691925,-0.15241195261478424,0.08262816816568375,0.23409800231456757,-0.35671961307525635,0.056090664118528366,-0.016464775428175926,0.0720226988196373,0.27001166343688965,0.20542879402637482,-0.2230098694562912,0.13289830088615417,0.06683477014303207,-0.3608013093471527,-0.057290155440568924,-0.12482219189405441,-0.03052244894206524,0.02448577620089054,-0.16727136075496674,-0.4041791260242462,0.04910114407539368,-0.05166454613208771,0.03615517169237137,0.294900119304657,0.11897249519824982,-0.31201407313346863,-0.0912332683801651,0.13415683805942535,0.329767644405365,-0.11083931475877762,-0.052181426435709,-0.14185522496700287,0.09470319002866745,-0.056603964418172836,0.03472524508833885,-0.2089681774377823,0.06031235307455063,-0.2543603777885437,-0.13564209640026093,-0.17475074529647827,0.12093625217676163,-0.23491035401821136,0.2918354272842407,0.2516699731349945,-0.014394747093319893,0.36775824427604675,-0.1570015251636505,0.2697640359401703,-0.06460703909397125,0.2820293605327606,0.025912443175911903,-0.1126798763871193,-0.33672916889190674,0.3338315188884735,0.020845884457230568,0.15630757808685303,-0.30201098322868347,0.20137549936771393,0.10999923199415207,0.18889622390270233,0.2569684684276581,-0.11888336390256882,0.3004671335220337,0.13770242035388947,-0.025657162070274353,-0.22377970814704895,0.011636566370725632,0.012933237478137016,-0.20236332714557648,0.14002244174480438,-0.2523495852947235,-0.1722925752401352,0.21567736566066742,0.2400233894586563,-0.1460101455450058,-0.24013328552246094,0.24019932746887207,0.1847568303346634,-0.20407550036907196,-0.022552676498889923,0.08010843396186829,0.2083057463169098,0.015313784591853619,-0.0965283140540123,-0.12197278439998627,-0.10369117558002472,-0.02962573803961277,-0.479602187871933,-0.21347849071025848,-0.2206069678068161,-0.05745083466172218,0.25487324595451355,0.18694671988487244,0.3169267475605011,-0.042323753237724304,0.028637370094656944,-0.04919744282960892,-0.49266916513442993,0.04699881002306938,-0.1231188252568245,0.09624660760164261,-0.15084120631217957,-0.3669266998767853,0.22101953625679016,-0.01132430974394083,-0.026683831587433815,-0.08735070377588272,-0.16081151366233826,0.11122765392065048,0.006350009236484766,0.0464487262070179,0.02275935187935829,-0.13954854011535645,-0.20862944424152374,-0.19703592360019684,-0.08030007779598236,-0.22613562643527985,-0.05036286264657974,-0.21740536391735077,0.03277892619371414,0.10356840491294861,-0.017921404913067818,0.2232980728149414,0.014223199337720871,-0.05451289564371109,-0.042132966220378876,0.28387197852134705,0.07863917201757431,0.0766720399260521,0.017246806994080544,0.1597645878791809,0.4364161789417267,-0.12903088331222534,-0.04979252442717552,0.18106137216091156,0.27431872487068176,-0.06091597303748131,0.22687499225139618,-0.39778584241867065,0.01719411462545395,-0.04762641713023186,-0.06209537759423256,-0.24084782600402832,0.19785325229167938,-0.10173549503087997,-0.08881203830242157,0.0590251199901104,0.11771108955144882,0.04079563915729523,-0.20722642540931702,-0.08878535777330399,0.1324305534362793,-0.015577408485114574,0.16594433784484863,0.04045962542295456,-0.12263520807027817,0.02577863447368145,-0.23911544680595398,-0.09883245080709457,0.16503916680812836,0.0025362635497003794,0.00445672357454896,-0.07591820508241653,-0.4093794524669647,-0.1336464136838913,0.16790758073329926,-0.06591998785734177,0.23316317796707153,-0.04482809454202652,0.06550867110490799,-0.22922617197036743,-0.05586392059922218,0.013371957466006279,0.0800623968243599,0.08411362022161484,-0.05049767717719078,-0.19122356176376343,0.150535449385643,0.05910513550043106,0.2046515792608261,0.3283267319202423,-0.12449970841407776,0.04126817360520363,0.04197065532207489,-0.014718174003064632,0.1430409699678421,0.20254091918468475,0.1990971565246582,-0.28937461972236633,0.32760509848594666,0.057016536593437195,-0.09972371906042099,0.3044712543487549,0.07805681973695755,0.24539831280708313,-0.1014736145734787
